34 128
12 -0.13808589 0.100337155 -0.032511976 -0.08396765 0.0025054764 -0.18491895 -0.11552322 -0.134151 0.047416087 0.043329213 -0.03346235 0.088658884 -0.032085802 -0.09360856 0.014537116 0.0291568 0.0062981816 0.12489891 -0.19434212 0.06535465 0.104419954 0.09170974 0.1455876 -0.01690845 0.058779094 -0.27288482 0.028144484 0.13463992 -0.08594179 -0.08380865 -0.022998758 0.15389855 0.047340415 0.07139573 -0.34582454 -0.032958418 -0.039296344 -0.15923962 -0.0869713 0.088696815 -0.037343662 0.090137415 -0.07815404 0.081167586 0.08146216 0.18948743 -0.0450567 -0.051279586 -0.18589681 0.13908888 0.048242144 0.15542014 -0.08498151 0.049894247 0.076665856 0.11551481 -0.03290298 0.071343854 -0.039784566 -0.056822866 -0.055475928 0.074712984 -0.028223034 -0.110052794 0.15254411 -0.02292633 0.18973483 -0.005231325 -0.18599951 0.03638897 0.10570388 -0.06487411 -0.062262665 0.096688755 -0.034269314 -0.09124451 -0.055413745 -0.019759735 -1.2946575E-5 0.12393382 -0.02357329 0.04597924 -0.08259638 0.041328568 -0.01315498 -0.028378008 0.030178573 0.08772893 0.11708148 -0.037485845 -0.0950642 0.012321909 -0.11973394 -0.0319858 -0.067415446 0.01636906 -0.025721647 -0.014658573 -0.13238506 -0.14224608 0.045032695 0.025393924 0.121584594 0.11771515 -0.04358692 -0.22998607 0.15749918 0.17744201 -0.061582483 -0.022736527 -0.20314631 -0.06345537 -0.17620082 -0.035495874 -0.13557114 -0.06993576 0.0945734 -0.0490516 0.059016798 -0.15247212 0.05594212 0.070502385 -0.16388229 0.16307667 0.08345915 0.11729338 -0.06772132 -0.04448068
23 0.20618352 -0.06811018 -0.039993677 0.21754016 -0.02625257 0.2055076 -0.08704988 -0.019093422 0.00365922 -0.14108261 0.17633992 -0.14544594 0.049380634 0.055850387 -0.009832088 -0.1564989 0.12866427 -0.10851058 0.1460042 -0.011377598 -0.010428491 -0.122322194 0.06581054 -0.09284418 -0.002180563 0.16016471 0.17680858 -0.01836167 -0.112694934 0.044557102 -0.034109652 -0.15584764 -0.124655776 0.031461902 0.27485535 -0.042494524 0.022541324 0.20934325 0.012274692 -0.04514728 0.29965705 -0.04429552 -0.060360037 -0.26245707 0.16287127 -0.041305214 0.06784843 0.04451005 0.13692749 -0.1534432 -0.27433527 0.028349595 0.010864707 0.012370921 0.029757915 -0.021863855 0.0992581 -0.0052579516 0.1513445 0.13912319 -0.03739658 -0.025307592 -0.0012987514 0.016778434 -0.1478266 -0.13457058 -0.16448614 -0.1335346 0.13491614 -0.056431703 -0.2514189 0.050520442 -0.047012676 -0.16710025 -0.12403283 0.3030993 0.01192581 0.14899208 0.08004762 -0.17622843 0.09924951 -0.077765375 -0.010375865 -0.012009471 -0.106459506 0.07717422 0.12611865 -0.011401884 0.0060499343 -0.011158264 0.012800835 -0.15317084 0.09084235 0.09859524 -0.02736961 -0.22691928 0.20596062 0.13853996 0.17620382 0.12692143 -0.02611046 0.119426355 -0.1281168 -0.14004776 0.22705245 0.20699659 -0.045299243 -0.17597948 -0.07346033 -0.00612055 0.1357516 0.057094395 0.18021886 0.01651196 0.02365319 0.066984735 -0.098704144 -0.21224387 -0.32407156 0.46624658 -0.1584918 -0.14137082 0.044025593 -0.1202786 -0.15408508 -0.15366486 0.069171384 -0.1155817
13 -0.18286422 0.122280784 -0.066544265 -0.0374779 0.044101972 -0.06578751 -0.27581698 -0.20245092 0.07781239 0.007671302 0.022289364 0.11894471 -0.030430458 -0.12529708 0.051638473 -0.052074265 0.06859435 0.15455382 -0.23242876 0.05686668 0.19774084 0.10693985 0.16383749 0.013307285 0.089092724 -0.27248737 0.08088299 0.1054877 -0.17913623 -0.10220485 -0.06470037 0.21973054 0.06197951 0.13477549 -0.45343542 -0.013408757 -0.07038131 -0.16314597 -0.10290693 0.10168819 0.13867077 0.086363874 -0.1577586 0.063895255 0.14560613 0.26713297 -0.009720401 -0.09590098 -0.21520737 0.18986413 -0.07706438 0.25849232 -0.10457048 0.04851286 0.1007089 0.16648403 -0.0496428 0.07990593 0.030226959 -0.028768841 -0.04851512 0.11573179 -0.0958749 -0.16777514 0.11789769 -0.10033958 0.16635303 -0.006301932 -0.25401768 0.08210926 0.05844527 -0.10362194 -0.039214462 -0.0019596657 -0.07881644 -0.06715471 -0.024199272 -0.035247345 0.100546926 0.1426854 0.011297969 0.004720662 -0.1695788 0.019129673 0.013147776 -0.025459247 0.07762761 0.04692384 0.109007545 -0.072536305 -0.077038944 0.043158792 -0.17579 -0.019202102 -0.13837034 8.98277E-4 0.13580489 0.035486042 -0.05986243 -0.16621405 0.051147096 -0.01868582 0.20920046 0.11300595 -0.022503432 -0.23453757 0.26718944 0.2603432 -0.09790706 -0.0064763967 -0.23789756 -0.15921211 -0.20497163 -0.103251606 -0.16126196 -0.102079846 0.13706736 -0.13236547 -0.048213076 0.02764574 0.028219292 0.12036403 -0.15223664 0.17982109 0.08675238 0.1892849 -0.03683199 -0.18609573
10 0.026153121 -0.020184286 -0.038777232 0.14062896 0.074256204 0.25491643 -0.10884125 -0.024822745 -0.06414207 -0.13939708 0.09850917 -0.06715835 -0.10366721 0.06973985 0.046108436 -0.008413767 0.12408223 -0.048367646 0.100722834 -0.06689144 0.08688335 0.027117532 -0.005843359 0.055077877 -0.070427135 0.18855712 0.115661666 -0.18955833 -0.11175478 -0.035267156 -0.08432666 -0.0073928623 -0.10304385 -0.0028553503 0.01564394 0.0966711 -0.02769728 0.092732094 -0.08986324 0.039466426 0.32409796 -0.058059014 -0.15047888 -0.11157163 0.010407849 0.06080284 0.038593937 -0.0023415252 0.10800047 0.009785275 -0.16713184 0.06228006 0.014397057 -0.040893674 -0.00126872 0.046122998 -0.07607501 0.09032462 0.18009849 0.071862794 -0.031106345 -0.033862397 -0.07646657 -0.097844414 -0.060909454 -0.119944245 -0.13074587 0.027895335 0.07159116 0.012813006 -0.063375235 0.07502728 0.024647728 -0.19244698 -0.03108128 0.12439826 0.07454153 0.06741739 0.07854784 0.005548444 0.09289581 -0.04270522 -0.20332085 -0.088257745 0.001092547 0.032251466 0.08025453 -0.10264593 -0.15478633 -0.22836083 0.0039456496 0.13984717 0.07194926 -0.054565173 -0.12502939 -0.04759189 0.2241564 0.104617804 0.074778564 1.8504709E-4 0.026096435 -0.0709712 0.13752367 -0.036625497 -0.041420043 0.033492673 -0.01623941 0.095988154 -0.024964035 0.06942219 0.010048559 -0.025976883 0.17735797 -0.062233396 0.08432456 -0.076185025 0.009949078 -0.15909752 -0.14130078 0.38871652 -0.06272272 0.044389527 0.11381315 -0.024593312 0.012290243 0.03662901 0.038379237 -0.25654784
19 0.18804511 -0.060744226 -0.05157691 0.21771191 -0.0244447 0.1883554 -0.094389245 -0.03303268 0.0030333856 -0.13812564 0.18684688 -0.14210084 0.0498135 0.04488328 -0.0068558957 -0.16151156 0.12010004 -0.093325935 0.11965225 -0.0029561992 -0.009999366 -0.115489006 0.08468388 -0.08806003 0.008868329 0.14624037 0.1715862 -0.025021276 -0.12139958 0.036217347 -0.03290951 -0.13800673 -0.11721446 0.043394994 0.24101552 -0.047701024 0.01522197 0.20459689 0.008637014 -0.036519792 0.30409843 -0.042986542 -0.062194202 -0.25139338 0.18122734 -0.024848672 0.073979005 0.039975725 0.13308369 -0.14282304 -0.26953852 0.042539883 -1.6823561E-4 0.01567041 0.040079303 -0.004812502 0.09962383 -0.0070670224 0.14473864 0.14626239 -0.037332837 -0.017165381 0.001011463 0.011044987 -0.13830674 -0.1400944 -0.15748252 -0.13401979 0.12491828 -0.049281448 -0.2537155 0.050809145 -0.0620783 -0.1616391 -0.122578576 0.29155287 0.011693885 0.1437506 0.08957132 -0.1701406 0.10543916 -0.079326406 -0.018051367 -8.415839E-4 -0.10978428 0.07320991 0.13526304 -0.005247935 0.016740842 -0.0042799013 0.0035090402 -0.1525686 0.07130935 0.10035871 -0.0313592 -0.22902763 0.195837 0.13671388 0.16808614 0.1075399 -0.012890428 0.12334459 -0.11766708 -0.123050034 0.21699177 0.20216167 -0.0352524 -0.1552959 -0.075453974 -0.009607877 0.12036408 0.048204217 0.16663465 0.011588898 0.0123859 0.07003239 -0.0787351 -0.22385572 -0.32185936 0.46332923 -0.1584046 -0.13488497 0.02458131 -0.10973518 -0.14227046 -0.1459969 0.066370144 -0.12657285
21 0.19422536 -0.06307453 -0.060398225 0.2188565 -0.026210302 0.19444498 -0.09716637 -0.027055195 0.014663005 -0.14015722 0.18859935 -0.15101826 0.05360453 0.047929004 -0.003029982 -0.15890363 0.12535946 -0.11002668 0.12083257 0.0027386213 -0.0057654474 -0.119440176 0.09262793 -0.095070586 0.0050383 0.14203271 0.18002105 -0.016612455 -0.13325131 0.041005548 -0.030394629 -0.1503784 -0.12910677 0.025534652 0.24813856 -0.054832935 0.0055518877 0.22766231 0.00922768 -0.032643486 0.30918992 -0.058091033 -0.06568738 -0.26176172 0.18261603 -0.031291254 0.06747729 0.038396537 0.12845373 -0.14407076 -0.27336454 0.030461531 0.009609385 0.022988118 0.03888154 -0.0061919144 0.105285764 0.006400517 0.14804061 0.13523312 -0.05183094 -0.021772237 -0.0041170097 -0.0011765469 -0.14679588 -0.1503735 -0.16269565 -0.13847469 0.13004656 -0.06521688 -0.2553354 0.05775673 -0.064019725 -0.17200042 -0.11525496 0.3109515 0.0085901795 0.16077061 0.07384636 -0.168063 0.1124628 -0.088553734 -0.016724493 -0.007818804 -0.10676146 0.085430525 0.13123 -0.01530658 0.017933896 -0.004663364 0.009202998 -0.15513125 0.07689595 0.09524734 -0.043870173 -0.22712164 0.21319047 0.14756066 0.16460736 0.10406323 -0.011308281 0.11826127 -0.12881921 -0.13059382 0.23658268 0.19467495 -0.03583597 -0.1567677 -0.07469426 -0.017178014 0.1144198 0.06122706 0.18008104 0.004746512 0.0131002795 0.063376606 -0.090662464 -0.23488331 -0.33169496 0.4759865 -0.15889841 -0.14267854 0.028699646 -0.11524753 -0.1392809 -0.15743504 0.057766348 -0.13027029
18 -0.05375942 0.105646215 0.021435633 0.031488787 0.11477104 -0.06596872 -0.13896297 -0.111098915 0.018029694 -0.02288742 0.017938463 0.037662283 -0.1205784 -0.046052516 0.07790145 0.030680086 0.025973387 0.14265494 0.017605634 0.018968785 0.14437014 -0.0013433086 0.08906 0.080237724 0.039420977 -0.11743369 0.069858834 0.015736287 -0.089753345 -0.10961889 -0.079645395 0.1302793 -0.045984972 -0.0012671739 -0.35320684 0.033621773 -0.12706201 -0.15610988 -0.13697773 0.066757634 0.036869977 0.00930451 -0.14709848 0.14360622 -0.08683737 0.22638457 0.075400405 -0.074363634 -0.065876596 0.2089255 0.10152111 0.16302499 -0.035988625 -0.0118565485 -0.050101068 0.18575647 -0.22211945 0.06490047 0.09962346 0.050219607 -0.04890543 0.0679089 -0.0146135725 0.027926605 0.1724447 0.0047134785 0.119748466 -0.080201216 -0.09930069 0.13674039 0.14781389 0.022276377 0.03554316 0.06508946 -0.14615425 -0.10217222 0.07783028 0.02191001 0.06808918 0.08545738 0.018053195 0.16714467 -0.21090977 0.07417441 -0.10835208 -0.07753341 0.050161697 -0.01881988 0.043756075 -0.19063681 -0.20983201 0.006216877 -0.074624345 -0.023704413 -0.06407683 -0.06916472 -0.04405906 0.006630713 -0.07635941 -0.13634513 -0.030945357 0.014353558 0.16626364 0.0035436153 -0.055561315 -0.22181898 0.08627024 0.20745385 -0.12946972 0.08816264 -0.22605842 -0.06383497 -0.15717304 -0.0057509164 0.032894034 -0.03250695 0.047009423 -0.22111762 -0.042146243 -0.108322285 0.03648066 0.0928932 -0.18489456 0.08025779 -0.007531597 0.1098759 0.057099164 0.004115846
17 -0.054092556 0.053501517 -0.06513177 -0.15622102 -0.23831345 -0.44186988 0.17278278 -0.12655094 -0.061162796 0.014926716 -0.119941436 0.0032842692 -0.018407693 0.13004239 -0.17304623 0.10928136 -0.13309862 0.2286521 -0.28469738 0.2479635 -0.13694365 0.28564134 0.19877781 -0.3265028 0.11007028 -0.34424847 -0.0526666 0.38348767 0.15454595 -0.0077079777 -0.0038772104 0.18481942 0.05936874 0.19249067 0.10136838 0.03202596 0.3546428 -0.29831704 -0.14105499 0.14651583 -0.25620666 0.43653977 0.26680338 -0.21521783 0.32199475 0.016873838 -0.203439 0.28201813 -0.19832376 -0.11363376 0.1008698 0.17900853 -0.260336 0.124779716 0.36302552 -0.18685448 0.24551673 -0.09924413 -0.14339705 -0.02515945 -0.13531077 -0.040544454 0.025851993 -0.21973772 0.25547838 0.07061188 0.3495948 0.08635999 -0.19934112 -0.046835996 0.031561513 -0.06277355 -0.4278173 0.46601942 -0.05962201 -0.030356238 -0.07266483 -0.07638587 -0.06965334 0.06714567 -0.17533387 0.18850255 0.080636546 0.12477335 -0.019842165 0.13771805 0.0917625 0.4290009 0.18512602 0.1421194 -0.16938499 -0.12219087 0.1215249 0.11382941 0.17774956 -0.111673035 -0.2354056 -0.11936553 -0.29522964 0.02867138 0.14997523 0.3803091 -0.11178832 0.4360465 -0.29367337 -0.04452588 0.036387548 -0.030768782 -4.0399097E-4 -0.14143835 0.038503017 0.010398254 -0.0872069 0.041000072 -0.4079784 -0.035601802 0.016012397 0.34633 0.24330996 -0.12465749 0.15254949 -0.10802469 -0.18496957 0.2692889 0.02899759 -0.016805582 -0.16251402 0.009292202
15 0.18199578 -0.063515544 -0.044209674 0.21009275 -0.03150882 0.19293824 -0.07746998 -0.022372937 -0.010553848 -0.13717191 0.18308824 -0.14986087 0.04048996 0.05078458 -0.0045031896 -0.14151667 0.109202154 -0.085779324 0.124678954 -0.008295311 -0.020378554 -0.11781811 0.08236885 -0.08262393 -7.5603917E-4 0.15969357 0.16564868 -0.038017612 -0.10868339 0.019556541 -0.02510785 -0.11840426 -0.12255767 0.048515692 0.23421526 -0.027663196 0.010553147 0.19112568 0.017220944 -0.04159344 0.2845366 -0.041771144 -0.05042148 -0.24541421 0.17752054 -0.029066386 0.0684092 0.051830154 0.15528813 -0.13727275 -0.26103592 0.04858598 -0.02062518 0.010128948 0.052748576 -0.009248101 0.08843281 -0.035350002 0.12608388 0.1641283 -0.016610412 -0.012785493 0.017446503 0.031039527 -0.1235536 -0.120630205 -0.15949833 -0.11863998 0.13692412 -0.04165483 -0.239594 0.050262544 -0.069956675 -0.16885407 -0.11588054 0.2586031 0.0041359286 0.14250079 0.09307903 -0.16708261 0.10092739 -0.06207432 -0.029416254 0.0054011405 -0.110744685 0.07230539 0.14620917 -0.0045675454 0.010405775 -0.014133355 -0.017180098 -0.15756321 0.06151745 0.09679589 -0.014949432 -0.21034785 0.16895233 0.12611051 0.16612765 0.092658825 -0.009008816 0.11902808 -0.111629635 -0.10356639 0.1902714 0.19330978 -0.039372 -0.13760401 -0.06449225 -0.014555116 0.12606093 0.05099215 0.16191947 0.013388289 0.038233746 0.070590325 -0.06307647 -0.229236 -0.3118404 0.4564804 -0.15843464 -0.12349991 0.023710065 -0.09207332 -0.1340988 -0.1368496 0.06097312 -0.12577869
27 0.20736992 -0.12336359 -0.071009666 0.12939152 -0.11254659 0.14948109 0.12168331 0.045872383 -0.116648346 -0.11519245 0.11405839 -0.17605373 -0.0035114437 0.18129794 -0.089617535 -0.035710502 0.07623554 -0.09246486 0.13731359 0.005889173 -0.12948701 -0.0037638152 0.02111662 -0.14457563 -0.06959989 0.21545601 0.079267845 -0.07518994 -0.013530413 0.04468562 0.016673418 -0.13329276 -0.11832997 0.031922363 0.45540157 0.040804725 0.1342576 0.16518012 -0.02877618 -0.025129277 0.18099523 0.036716606 0.041274503 -0.33492553 0.17176537 -0.15459687 0.0047186636 0.14967303 0.21592844 -0.26306173 -0.18101199 -0.047546063 -0.03546061 -0.01817967 0.09994252 -0.14124712 0.16189963 -0.047513213 0.04036389 0.1550466 -0.027720848 -0.07813076 0.038954373 -0.00810938 -0.06470199 -0.040908895 -0.1608415 -0.03795108 0.22370282 -0.11619491 -0.24596514 0.084147476 -0.14194018 -0.09642588 -0.024750916 0.25664613 -0.026377682 0.10202042 -0.008802145 -0.16462356 0.028104736 -0.03301567 0.03971111 -0.031504445 -0.06730221 0.11505796 0.10233371 0.071602106 -0.05839422 -0.037071988 -0.012666362 -0.09895022 0.18165621 0.07281731 0.08686417 -0.17385201 0.08730573 0.037858814 0.09744636 0.15000884 0.07021255 0.1805784 -0.15961677 0.02280877 0.023964861 0.26738 -0.16475229 -0.1814119 0.011366262 -0.0040669534 0.24791497 0.09712669 0.27570096 0.06503617 0.020444388 0.04533304 -0.047003258 -0.029702542 -0.1403779 0.40456653 -0.12507313 -0.15342471 0.12851074 -0.08332523 -0.12327686 -0.18295205 0.0046620574 -0.13132831
16 0.16291748 -0.063046806 -0.05251707 0.19649701 -0.026717884 0.2009102 -0.09499915 -0.016294738 0.010262315 -0.12712333 0.17732197 -0.1277265 0.050692435 0.04127055 -0.00182454 -0.15201329 0.11675052 -0.101708725 0.11191672 -0.014574066 -0.0054136426 -0.11250669 0.07258343 -0.07964203 -7.507598E-4 0.15127279 0.16042623 -0.037545092 -0.1243661 0.037100684 -0.018441457 -0.12947917 -0.10451492 0.037517413 0.23028919 -0.048317775 0.0040473393 0.20828126 0.020566616 -0.034135163 0.29547822 -0.058610525 -0.057406444 -0.23640679 0.17495508 -0.03232336 0.06645364 0.032248687 0.13757265 -0.13589534 -0.27207437 0.031660855 -0.0019028842 0.009315737 0.042399473 -0.0133882845 0.09582728 -0.013656485 0.12685059 0.13628702 -0.024670828 -0.013976335 -2.9864745E-5 0.010711261 -0.14611165 -0.13309121 -0.16445516 -0.116773 0.124615826 -0.04991475 -0.24575156 0.038623318 -0.044666443 -0.1829296 -0.0969655 0.27419946 0.002990128 0.13325608 0.08553246 -0.15740655 0.10047235 -0.08795942 -0.021943524 -0.0060821716 -0.07642769 0.07677789 0.12816209 -0.018195756 0.010181524 0.002190667 0.01685159 -0.13263258 0.056826774 0.09325926 -0.03567708 -0.19460765 0.20358007 0.13301666 0.16978408 0.09721269 -0.0015386711 0.09242508 -0.10309582 -0.11525095 0.20421639 0.19314708 -0.02687627 -0.13588749 -0.059708156 -0.013879031 0.11505273 0.046507347 0.1609058 0.0016953907 0.02077907 0.056629132 -0.06504185 -0.21286893 -0.30952683 0.44523275 -0.15733334 -0.12341478 0.044702675 -0.10975948 -0.12713276 -0.13185215 0.052913494 -0.13491869
22 -0.07218533 0.114013456 0.008821947 0.0037288067 0.10171185 -0.08633384 -0.15516493 -0.13295573 0.027987942 -0.0039123124 0.0059936834 0.057469748 -0.10736263 -0.050645765 0.053489473 0.01484879 0.01765162 0.15322526 -0.02725529 0.030394647 0.14537753 0.024174219 0.08530183 0.058641378 0.050634086 -0.16231817 0.054672886 0.04587417 -0.094046116 -0.09791127 -0.0701983 0.14061718 -0.018857284 0.018252743 -0.3591377 0.02045963 -0.10829876 -0.1702943 -0.14387836 0.07294704 0.023922088 0.027472662 -0.14095691 0.14003928 -0.058989458 0.22295645 0.06999118 -0.07181884 -0.10644636 0.20301253 0.09898681 0.16876982 -0.036011748 -0.0034672504 -0.030771716 0.17019121 -0.18486138 0.06452579 0.07890162 0.02826726 -0.057304528 0.08442619 -0.021880481 0.006985768 0.17930835 0.009270976 0.1422025 -0.073041074 -0.12459804 0.12622854 0.13404681 -0.0056601632 0.033841256 0.078111604 -0.14002681 -0.09900493 0.062558286 3.3465933E-4 0.07124415 0.08908687 0.0017053145 0.15265064 -0.18351145 0.07161609 -0.08697103 -0.0702504 0.045904264 -0.002372101 0.068173036 -0.15971133 -0.19304647 -2.806471E-4 -0.08428286 -0.022611797 -0.059000056 -0.057862647 -0.029958475 -0.010162388 -0.07200997 -0.13857114 -0.017094685 0.028740421 0.1648868 0.024407007 -0.060217425 -0.2204773 0.116699405 0.20947717 -0.12869856 0.0793555 -0.21610084 -0.085005894 -0.1772175 -0.0055611897 -0.01177292 -0.03601057 0.064572126 -0.17774354 -0.021130659 -0.1277528 0.037764873 0.09225444 -0.18491659 0.08934134 -0.011430864 0.11784186 0.04932187 0.0022591345
11 -0.10881884 0.08261503 -0.11393715 -0.10140068 -0.16967763 -0.39057693 -0.023399932 -0.20358048 0.029778162 0.01862237 -0.056774832 0.048903134 -0.020510813 -0.010107236 -0.10493546 0.025622735 -0.026394421 0.21823537 -0.32879695 0.21361232 0.014805766 0.22674255 0.26062888 -0.23421429 0.10860918 -0.4396323 0.031190947 0.36874098 -0.024329532 -0.007482336 -0.0074108453 0.18703757 0.074801214 0.18914217 -0.1783803 -0.066255644 0.17789124 -0.2682382 -0.17884633 0.1659946 -0.13052657 0.32337123 0.099068955 -0.12676753 0.32776156 0.169168 -0.13121551 0.14152859 -0.24351723 0.0217714 0.03690794 0.23530398 -0.24010445 0.12853399 0.30160984 -0.033411317 0.17373672 0.015170247 -0.104718 -0.031053785 -0.13674662 0.033315625 -0.01798532 -0.20201689 0.24451473 -0.002862959 0.33705482 0.0047602053 -0.24028991 4.1176783E-4 0.027499197 -0.08011192 -0.3120446 0.33941242 -0.08748801 0.00666132 -0.112977445 -0.04232563 -0.0058044298 0.08951335 -0.13155995 0.13201386 -0.009012426 0.13960886 -0.02562257 0.081023134 0.092931286 0.34746957 0.26834595 0.10349325 -0.20074268 -0.12008071 -0.027014824 0.08886699 0.054827493 -0.12007422 -0.10537346 -0.05476979 -0.24920923 -0.06828769 0.16425458 0.305128 -0.019576935 0.33598602 -0.13830097 -0.15226024 0.15509902 0.06633681 -0.061229877 -0.1084498 -0.15372197 -0.033848584 -0.16287977 -0.019769331 -0.38322458 -0.05573498 0.0800742 0.104746714 0.12233102 -0.12871654 0.113176994 -0.067928314 -0.23281233 0.23379311 0.046469685 0.042996433 -0.14547482 -0.05269571
20 0.030797372 0.030334331 0.029259887 0.017623462 0.046154283 -0.00935316 -0.06637194 -0.022287436 0.023076035 3.2424883E-4 0.03732031 0.0010483753 -0.024869934 -0.020258004 0.05079297 0.014599434 0.009357059 0.042454265 0.07248623 -0.015215665 0.056603234 -0.06840443 0.048261926 0.03958111 0.011800982 -0.013824577 0.031547926 -0.017893009 -0.06777519 -0.08858656 -0.005778265 0.026377711 -0.036794346 -0.0047642146 -0.111360446 0.0025478126 -0.09703917 -0.035455942 -0.03058773 -0.006565973 0.019613085 -0.01894537 -0.08444853 0.06425808 -0.038783636 0.07160569 0.06459707 -0.05608425 0.016016642 0.051359132 0.028861038 0.053068016 -1.7506065E-4 -0.014107569 -0.045919627 0.10955547 -0.115986265 0.005175355 0.020428648 0.051566195 0.011110098 0.04882361 0.031013874 0.07955225 0.06231844 0.015719537 0.005648243 -0.07992115 0.0078020636 0.0422103 0.01886519 0.004098501 0.043018524 -0.013056702 -0.09076752 -0.027636826 0.0113816 0.048132364 0.043685455 -0.01578342 0.04905549 0.04809204 -0.068396196 0.029556714 -0.08736476 -0.058745217 0.030077918 -0.020504463 0.027148362 -0.093588226 -0.08693429 -0.045395333 -0.05417397 8.535857E-4 -0.0085395295 -0.06042569 -0.03326408 0.010081364 0.01503477 -0.04939389 -0.042240262 0.010821211 0.042394537 -0.041261837 0.04198613 -0.08137986 0.026253704 0.05478235 -0.08194159 0.037873387 -0.063298926 -0.014424143 -0.075993925 0.024012819 0.07805032 0.008326318 0.016083948 -0.16248505 -0.08507403 -0.032676864 -0.04112864 0.031828072 -0.10641257 0.0066831093 -0.047172118 0.026859583 0.050881166 0.023106888
5 -0.1295742 0.013240353 -0.15901166 -0.14193591 -0.17757994 -0.32151365 0.09588346 -0.16308057 -0.08777729 0.0389085 -0.08972534 0.03652409 -0.09458568 0.06846231 -0.11204424 0.11993923 -0.014412377 0.18363546 -0.3076546 0.19204736 -0.02181425 0.28296766 0.20620178 -0.21224621 0.052024603 -0.34342968 -0.018740643 0.19360419 -0.01129251 -0.04549784 0.025347685 0.23503993 0.05075708 0.16739798 -0.120222285 0.024400124 0.14977978 -0.2606619 -0.21298465 0.17644575 -0.11035599 0.28115267 0.079670735 -0.15005453 0.29593623 0.112849005 -0.13441508 0.16230723 -0.07647713 -0.005786124 0.077340044 0.18106161 -0.27630216 0.043964617 0.30988556 -0.04754376 0.15097828 -0.023686908 -0.12663533 0.05634742 -0.1026831 0.008734773 -0.003250973 -0.19850639 0.2860455 0.071607806 0.25652176 0.065783635 -0.12249194 -0.02933291 0.032025877 -0.03164348 -0.31954467 0.22999085 0.026776887 -0.061678216 -0.113155715 -0.05887721 -0.052051295 0.12531628 -0.13525575 0.1836575 -0.096365646 0.11793005 0.04001974 0.09578763 0.10005036 0.30384353 0.19932337 7.220226E-4 -0.26903445 -0.027644917 -0.029640337 0.028634766 0.10016007 -0.017162101 -0.13053884 -0.108626686 -0.266552 -0.11312724 0.27916837 0.24718344 0.031662248 0.43795544 -0.32043046 -0.13823761 0.054425824 0.18636112 -0.0156081645 -0.037141196 -0.106948785 -0.049414393 -0.05672976 0.0029157347 -0.2922491 -0.101522945 0.20101619 0.10098142 0.20222218 -0.11952961 0.10157163 -0.009654712 -0.13301803 0.26865417 0.07943183 0.029118014 -0.16291356 -0.14458874
29 -0.009553611 -0.058578372 -0.062809825 0.048722945 0.04060971 0.19699399 -0.078604296 0.01999795 0.050969657 -0.036125537 0.020481942 0.01988406 -0.036401298 0.018934773 0.044589344 0.013069078 0.07575998 -0.17582245 0.023663636 -0.034578286 0.096700154 -0.0015379153 -0.044245895 0.008249153 -0.024480268 0.08073483 0.07803219 -0.09889676 -0.118917294 0.06906683 -0.05170439 -0.06894937 -0.035240468 -0.09868894 0.040894616 -0.040898822 -0.06240492 0.18795563 -0.043882877 0.045719102 0.22070746 -0.14923567 -0.07230139 -0.037505247 -0.010599251 -0.017538453 0.007565711 -0.0361256 0.04286137 0.021655036 -0.13662186 -0.06889021 0.07172104 -0.02482336 -0.04421204 0.017522557 0.0064165774 0.15561429 0.14254786 -0.03254053 -0.054977708 -0.06060745 -0.10808003 -0.13678639 -0.16935931 -0.105053715 -0.13288927 0.027251191 0.031927 -0.04283675 -0.047396246 0.070105836 0.08515448 -0.18035804 0.074047804 0.17378777 0.05485222 0.089652196 -0.009237211 0.033705484 0.107520364 -0.096228085 -0.13005905 -0.08248242 0.156181 0.050895948 -0.03408218 -0.12812707 -0.05217955 -0.03342568 0.10329239 0.19056815 0.037644643 -0.06940331 -0.14307843 0.071436964 0.24086806 0.10279986 0.030577945 0.016813982 0.058711004 -0.1421573 0.051405143 -0.089428015 0.017227264 0.02086208 -0.020053247 0.07376256 0.013510188 0.077939 -0.062117293 -0.010422395 0.15822 -0.12429627 0.007761291 -0.09895293 -0.013050768 -0.07570915 -0.116035275 0.20486902 -0.0057989913 0.01899717 0.14649092 -0.0747449 0.04474711 -0.03069618 -0.02164955 -0.14842197
31 0.101008885 -0.029618248 -0.013794085 0.15076287 0.054150436 0.12169161 -0.096351236 -0.024410304 0.029831365 -0.063645765 0.106227055 -0.06549146 -0.0045788274 0.019333616 0.041948747 -0.11497977 0.035596788 -0.0065677827 0.16393384 0.0030542212 0.040397562 -0.13496031 0.011987601 0.008514033 0.038794827 0.09215211 0.082625784 -0.06385418 -0.08056021 0.01257855 -0.026396994 -0.038474597 -0.07740912 -0.012849581 0.04474565 -0.03841966 -0.08636051 0.06925127 -0.031238932 -0.032796554 0.15458329 -0.08600857 -0.050179664 -0.027304685 0.004585229 0.02344319 0.15769933 -0.011672932 0.1288334 0.022119638 -0.07979077 0.044305164 -0.0016972 -0.0510494 -0.051695354 0.06932257 -0.06612946 -0.06764617 0.14059599 0.16598673 0.005448748 0.039173085 0.00612866 0.14823413 -0.034316186 -0.0027811972 -0.09940218 -0.14539228 0.08134496 0.08165062 -0.09987199 0.037148762 0.06668494 -0.08522822 -0.15575434 0.08901827 0.10109355 0.065080434 0.13186981 -0.106578305 0.073349655 0.07508674 -0.098842695 0.08480029 -0.06742881 -0.0050377855 0.08389833 -0.07236766 0.052802056 -0.022417711 -0.13155583 -0.12726332 -0.020500883 0.10603907 0.029814614 -0.15947494 0.06312862 0.05208312 0.13820603 0.024261668 -0.026618196 0.07076793 -0.02742916 -0.10829849 0.09567967 0.094458885 -0.018476548 -0.00789823 -0.092102446 0.08856788 0.007907144 -0.026509145 0.0018823036 0.014672246 0.09475411 0.07506028 -0.011121753 -0.2515372 -0.2402731 0.1576599 -0.09243171 -0.041809414 -0.053681243 -0.10535563 -0.15752035 -0.08283692 0.1281021 0.022013552
25 -0.037720792 -0.21355537 -0.27223393 -0.10503228 -0.043841865 0.18486702 0.0051007615 -0.0072850664 0.055328682 0.1213158 -0.11078544 0.09771272 0.034485005 0.014047422 -0.1007193 -0.1517985 0.1871128 -0.28627387 -0.16153726 0.008481611 0.0900041 0.15088609 -0.20528701 -0.069881044 -0.009096488 -0.11851603 -0.021619681 -0.06410111 -0.17205691 0.31645074 0.10291486 -0.25714073 0.111746244 -0.17892733 0.22913116 -0.21474029 -0.08751048 0.29089603 -0.11870905 0.039650507 0.16110024 -0.28473404 -0.094889134 -0.14418316 -0.031113787 -0.1494716 -0.016867204 -0.1270627 -0.044224855 -0.09156257 -0.07897118 -0.27078092 0.22147313 -0.08799669 -0.1485974 -0.15720591 0.2924373 0.25590882 0.069585785 -0.13850039 -0.113113664 0.005286291 -0.22072895 -0.1542287 -0.19821538 -0.062595576 -0.12500536 -0.020802863 0.11026362 -0.20271122 -0.11741316 0.012988152 0.29347482 -0.2833102 0.26892924 0.30917394 -0.051005553 -0.06866975 -0.18235618 0.047745902 -0.0467394 -0.17805445 0.082767524 -0.13177475 0.33693215 0.13269655 -0.2494703 -0.18879712 0.08582161 0.09638638 0.18133822 0.17245457 -0.009495504 -0.113513395 -0.10332529 0.20950334 0.41833115 -0.035194837 0.07399929 0.04850321 0.25042596 -0.105628386 -0.09596104 -0.07597822 0.09662689 0.18858615 -0.03477353 0.03250019 0.041109186 0.15655796 -0.06391377 -0.004750096 0.2563179 -0.049827695 -0.11738681 -0.067915894 0.055513717 0.13960707 0.12931697 -0.04434022 -0.0335649 -0.039045084 0.38533825 -0.19095333 -0.05720403 -0.20307668 -0.03273999 -0.12878378
26 -0.0111155175 -0.24268699 -0.31889933 -0.04234761 -0.08664616 0.14012039 0.1322957 0.040553384 0.02087963 0.11120313 -0.05161373 0.031562105 -0.031385973 0.010568799 -0.083226606 -0.034844592 0.15011863 -0.34876105 -0.16351809 0.06754766 0.03147253 0.1038123 -0.10426706 -0.0894166 -0.05833978 -0.08078101 -0.0130416015 -0.11017062 -0.16984117 0.3449649 0.08413657 -0.23579215 0.018903533 -0.20476252 0.2052904 -0.22941948 -0.13054624 0.37144777 -0.10409951 0.09260143 0.1315181 -0.31793103 -0.029332118 -0.11100059 0.017677398 -0.17732088 0.02351795 -0.0504359 0.13334972 -0.057453964 -0.032820467 -0.3331458 0.11870444 -0.10238215 -0.107935034 -0.10577917 0.28278473 0.23778872 0.04145931 -0.039377343 -0.12774342 -0.056110673 -0.14859894 -0.1392764 -0.18948232 -0.03089645 -0.17699808 -0.031091297 0.22007668 -0.21851072 -0.13447013 0.11789171 0.1257065 -0.28738925 0.33301073 0.3033812 -0.059073586 0.047736544 -0.22201847 0.028169436 -0.0017840834 -0.12068643 -0.013403405 -0.031990215 0.3450705 0.15019421 -0.18177308 -0.14155482 0.11774148 0.14453241 0.047734912 0.12881619 0.014991502 -0.090805136 -0.07059917 0.18900585 0.30517545 -0.004086236 -0.013791919 -0.017491411 0.3631398 -0.09218207 -0.12825964 -8.962523E-4 0.021070912 0.16489212 -0.15433739 0.06097226 0.070056275 0.15630586 -0.10442574 0.030541562 0.33126703 -0.063242875 -0.08919155 -0.063043244 0.1317795 -4.8778398E-4 0.075200975 -0.04064075 -0.00471668 -0.06799961 0.3149665 -0.15526965 0.01666951 -0.27707168 -0.11027821 -0.09673656
9 0.020254705 0.0025552248 -0.014875261 0.094866306 5.527534E-4 0.06501607 -0.085887626 -0.027077887 -0.0034080532 -0.06682742 0.11244849 -0.067097 0.010667474 -0.059702367 0.04792568 -0.0035839744 0.091200344 -0.041123647 0.0030956154 -0.034188814 0.036404714 -0.06766133 0.12129435 0.02701556 -0.03790426 0.042843018 0.12597881 -0.047969714 -0.11818083 -0.07907677 -0.007552312 6.390558E-4 -0.06892289 0.03973915 -0.09764709 -0.01514735 -0.07110479 0.07503321 0.027125167 0.015727945 0.15544905 -0.04321552 -0.10517435 -0.051145546 0.103084855 0.07801193 -0.0023287893 -0.03913737 0.08022999 0.00450969 -0.13985462 0.06720903 -0.050372995 0.03407395 0.05075966 0.10643718 -0.03280984 0.03906607 0.013302704 0.052955594 0.003359199 7.394465E-4 0.023301665 -0.0314018 -0.035880312 -0.09835013 -0.0703313 -0.024038935 0.040387496 -0.014612962 -0.06405506 0.03179941 -0.07805115 -0.13203876 -0.0040891757 0.06355537 -0.06702469 0.12998684 0.025729671 -0.027923333 0.09120269 -0.08184277 -0.088163465 -0.012579261 -0.07574537 -0.0107775545 0.10813037 -0.007852964 -0.0068914844 -0.07203406 -0.0018746419 -0.01737958 -0.04457955 -0.022136167 -0.09470847 -0.058633335 0.058041792 0.11251485 0.017061053 -0.05070696 0.01067839 -0.02839954 0.041211836 -0.042770527 0.10955903 -0.053149518 0.02280838 0.018992763 -0.0243835 -0.059156008 -0.05043022 0.04426324 0.044997033 -0.041004226 0.050661877 -0.012310031 0.020009382 -0.23086348 -0.16327137 0.21400337 -0.08460832 -0.011490624 -0.03618976 0.020767909 0.05394753 0.01556236 -0.034540206 -0.13411516
6 -0.11572319 0.048945058 -0.10558186 -0.16311616 -0.17873658 -0.38259897 0.14910471 -0.14521062 -0.08744696 0.028766042 -0.116375305 0.033875618 -0.07017805 0.10176354 -0.12467974 0.14378309 -0.11029432 0.19559622 -0.32427737 0.24078166 -0.08707171 0.2955689 0.18490566 -0.25765872 0.11246393 -0.33820662 -0.04076538 0.26307312 0.091410324 -0.035753474 -0.018247038 0.22922446 0.046178997 0.14683239 -0.04237996 0.057634577 0.25001752 -0.2598603 -0.1532512 0.17762847 -0.17389837 0.3279241 0.18018536 -0.13023533 0.26879236 0.053883802 -0.1758648 0.2171813 -0.15210891 -0.019578801 0.123110466 0.15250716 -0.245665 0.069171265 0.30842835 -0.093368314 0.17170267 -0.056858115 -0.10402017 0.0021476788 -0.12916273 -0.015395354 -0.008711992 -0.26453882 0.254469 0.06284926 0.31216633 0.10522978 -0.180945 -0.038242556 0.067641206 -0.027674073 -0.3881055 0.34001055 0.013471011 -0.08869889 -0.039062094 -0.061624758 -0.09080814 0.14726135 -0.12201701 0.20422378 -0.046470035 0.11273289 0.050514378 0.12766899 0.10159722 0.33050844 0.15737024 0.07167242 -0.2053221 -0.036525507 0.05883413 0.03359801 0.101304784 -0.0126987845 -0.1858668 -0.10299812 -0.3060904 -0.08255188 0.20245948 0.2690632 -0.0069801016 0.44495007 -0.3679457 -0.12378256 0.038353894 0.14005472 -0.0043054647 -0.07412347 -0.04439113 -0.028972358 -0.05686474 0.015856965 -0.3489794 -0.08718131 0.11605183 0.23851632 0.2468757 -0.121109724 0.15428519 -0.0112136295 -0.1590107 0.3029238 0.092947535 0.008924026 -0.16551062 -0.069764756
8 -0.15518378 0.088425346 -0.04586183 0.038508862 0.12335012 0.041347772 -0.22697046 -0.14886294 0.039513964 -0.04448076 0.018924154 0.07537759 -0.11070658 -0.06406073 0.095620036 -0.016432855 0.050728757 0.11392397 -0.08240483 0.033382673 0.2054403 0.06353546 0.07375717 0.07588865 0.056104895 -0.12580355 0.07552393 -0.023737581 -0.14196286 -0.068165556 -0.10767422 0.18039662 -0.001778808 0.03080116 -0.407031 0.029272621 -0.11051037 -0.11627577 -0.14264658 0.10361748 0.18089777 -0.007764745 -0.15709282 0.11882385 -0.0053273127 0.2483422 0.06646666 -0.081193015 -0.09616791 0.24103494 -0.019484226 0.19891533 -0.05371772 -0.01021284 0.0051884213 0.16594581 -0.15307194 0.07712705 0.15763903 0.023086898 -0.056309737 0.0759819 -0.11247422 -0.09870746 0.07900485 -0.0691501 0.08876757 -0.006825624 -0.16338225 0.14652154 0.11099979 -0.004758171 0.04333445 -0.030129358 -0.08748632 -0.07131171 0.10876489 -0.019986844 0.11885513 0.14236753 0.045193255 0.08632823 -0.281097 0.042042762 0.041948956 -0.028032823 0.061540853 -0.0666077 0.025759926 -0.1445339 -0.13709076 0.113302775 -0.10806276 -0.028943524 -0.14109679 0.0030150919 0.13525446 0.046359096 -0.03850613 -0.14996834 0.04169783 -0.07193867 0.23544541 0.05349127 -0.10330687 -0.19066367 0.1563979 0.293721 -0.09195419 0.087160036 -0.24573164 -0.14665975 -0.119393386 -0.10351536 -0.044351783 -0.09521387 0.10745867 -0.18852687 -0.07136434 0.050511606 0.0444071 0.14040959 -0.092380226 0.09534283 0.062072337 0.14986148 0.037544727 -0.15173142
7 -0.08616535 0.08798898 -0.064173706 -0.13207713 -0.17174053 -0.4265652 0.05876144 -0.16219626 0.01281591 0.028627371 -0.09359057 0.033505224 0.021772102 0.02918018 -0.11607225 0.03965993 -0.11366012 0.19296782 -0.31934056 0.24243623 -0.058415428 0.2133599 0.20955692 -0.2620115 0.16104583 -0.40630695 -0.0065536946 0.38362485 0.07538807 -0.0036344088 -0.017806698 0.16334388 0.07376689 0.15067522 -0.07373883 -0.037782524 0.2374856 -0.24708842 -0.09893906 0.14731684 -0.19603576 0.32553762 0.18248445 -0.099742144 0.28322083 0.086648695 -0.15217327 0.16589773 -0.26343244 -0.014178239 0.08205715 0.18159153 -0.19471306 0.1304868 0.28054503 -0.08008433 0.19464026 -0.04355786 -0.10085478 -0.058917865 -0.13780597 0.014718045 -0.005364853 -0.21093929 0.20026307 0.013020958 0.3523989 0.027713073 -0.25442633 -0.017457 0.04972743 -0.07934292 -0.3390701 0.39119703 -0.0758002 -0.03223027 -0.048039056 -0.04902307 -0.050087847 0.08967661 -0.118465915 0.14391048 0.05246447 0.1433261 -0.01407042 0.09980335 0.085782796 0.33585814 0.2275859 0.1726655 -0.14005414 -0.13769642 0.034003858 0.10116477 0.07886582 -0.093304306 -0.16774102 -0.061742734 -0.25543657 -0.0421593 0.103952125 0.2970411 -0.06939301 0.32706776 -0.17250064 -0.11774667 0.121515624 0.020657567 -0.047006812 -0.12946194 -0.07661085 5.001501E-4 -0.15380275 0.011932118 -0.39361548 -0.030707993 0.009665668 0.21037723 0.16122204 -0.14441067 0.13671324 -0.06336122 -0.23288627 0.23530167 0.044578463 -0.005856543 -0.1376406 0.023721496
30 0.1829563 -0.2009592 -0.12528718 0.15187494 -0.10420113 0.21861774 0.13898288 0.033469126 -0.17145012 -0.09822839 0.06346506 -0.17567334 -0.021260515 0.154907 -0.070367545 -0.124519035 0.13171878 -0.100095235 0.12792717 0.012913936 -0.08904397 -0.011911165 -0.07998349 -0.08187681 -0.043063704 0.19001643 0.05429334 -0.18869266 -0.0073571657 0.10722076 0.03794265 -0.1315936 -0.08492666 -0.0014443184 0.4117663 0.046642937 0.0403149 0.14723891 -0.056334138 -0.05245538 0.2179255 -0.06835043 -0.0052697985 -0.3053452 0.092996016 -0.13657756 0.056977045 0.10065925 0.30422056 -0.21125576 -0.14656498 -0.066832036 -0.03286188 -0.08536687 0.037643358 -0.14216071 0.16563572 -0.100529596 0.1151227 0.23348679 0.011803501 -0.03473772 0.015054577 0.10275663 -0.05533668 0.020156542 -0.183385 -0.08533072 0.27088788 -0.07731243 -0.23386472 0.07937759 -0.03200294 -0.21515468 0.009217483 0.1995806 0.005129865 0.011488195 0.009657816 -0.15352404 -0.028394239 0.025593035 -0.017710054 0.0327259 -0.013833006 0.1254509 0.07304 -0.045349486 -0.021376664 -0.05473264 -0.12586144 -0.14266323 0.10181104 0.098081365 0.1071934 -0.11390766 0.12979582 -0.021663954 0.1619629 0.088451974 0.15476835 0.11701577 -0.13712992 0.03610304 -3.882772E-4 0.3232134 -0.15880919 -0.11870507 -0.011768725 0.09462171 0.20195368 0.046500724 0.29324004 0.08207789 0.07479126 0.082793035 0.027979407 -0.12608588 -0.09603726 0.35619712 -0.15701577 -0.1196421 0.22436036 -0.13603537 -0.15259737 -0.22602579 0.08270881 -0.1615051
28 -0.050928503 -0.16818348 -0.2285813 0.026747461 -0.0021494362 0.22968079 0.051006313 0.027074892 -0.056183565 0.02050239 0.02496551 -0.014396795 -0.09440143 0.033766497 -0.038006373 -0.025591267 0.14006242 -0.20454323 -0.06499985 -0.012683103 0.047222313 0.109399565 -0.09904048 0.030261895 -0.10701565 0.08857346 -0.022611044 -0.25251877 -0.13982403 0.19271134 0.039180603 -0.112034194 -0.011186406 -0.10252924 0.090985574 -0.063363686 -0.10692227 0.24736613 -0.095553175 0.0759624 0.22237483 -0.23583741 -0.09948095 -0.07235181 -0.0048541054 -0.08489927 0.07309101 -0.040789027 0.18128803 -0.01053367 -0.07888802 -0.19277805 0.05883909 -0.116371945 -0.064663686 -0.050425682 0.124220975 0.14437564 0.043946374 0.03731974 -0.042823724 -0.028510867 -0.12677738 -0.096066654 -0.10947973 -0.042642888 -0.19852844 0.0390283 0.19988021 -0.1012298 -0.11614758 0.0883419 0.1057691 -0.3004836 0.2383228 0.16273437 -0.013888636 -0.0066700904 -0.07150973 0.031685308 0.009936114 -0.09484476 -0.110843726 -0.047205973 0.2338634 0.09170151 -0.07238197 -0.15557666 -0.03936403 -0.04136546 0.008723833 0.17001423 0.004300329 -0.0838207 -0.08043215 0.12901242 0.27393243 0.0063307886 0.05371521 -0.051985856 0.27498478 -0.12542973 0.03937144 0.037484694 -0.082388826 0.1379218 -0.10970611 0.12794967 0.07341141 0.13375276 -0.032657236 -0.025497705 0.28384048 -0.052998688 0.020904152 -0.08224369 0.17103916 -0.05519995 0.042245694 0.1260211 -0.035442792 0.03085128 0.27643284 -0.10339094 0.037148695 -0.112707056 -0.049621962 -0.21117689
14 -0.082037285 0.023239687 -0.034380272 0.029340638 0.07419322 0.105851434 -0.16697028 -0.082796104 0.01231854 -0.035694055 0.032802053 0.032054037 -0.06609756 -0.023829116 0.07170215 -0.026276754 0.06502931 0.06312372 -0.005959778 -0.011636232 0.14370501 0.022702217 0.02866592 0.07070179 0.019329695 -0.02112619 0.047594003 -0.0948049 -0.1201243 -0.07809495 -0.052488208 0.1157119 0.0015986206 0.037625693 -0.21926087 0.050469846 -0.09616234 -0.061529223 -0.085912585 0.0413179 0.18556967 -0.022085324 -0.14271592 0.042164475 0.014076504 0.14254959 0.061409976 -0.07403212 -0.0031782577 0.12058305 -0.07455525 0.13527156 -0.03779184 -0.027890945 0.005563163 0.10923235 -0.10533343 0.019599505 0.09888005 0.055348095 0.009376736 0.06674803 -0.06625046 -0.037139595 0.039387483 -0.04371019 -0.0068616834 -0.009541047 -0.063858345 0.08493174 0.015768165 -0.025264595 0.06245356 -0.11058486 -0.06667128 -0.035278797 0.0587995 -0.01635712 0.11631586 0.06625976 0.053887915 0.023136865 -0.19354346 0.004073962 0.030890422 -0.022202168 0.059000496 -0.07235233 -0.017524177 -0.14363946 -0.07757234 0.08105059 -0.0893283 -0.010196548 -0.082006685 0.0013212104 0.13587013 0.031561136 0.03965687 -0.09214203 0.036997557 -0.07313409 0.17035705 0.037049793 -0.057945475 -0.08363974 0.10819402 0.19892086 -0.07412846 0.07566445 -0.10771411 -0.112183355 -0.04425208 -0.06041827 0.024555914 -0.07346516 0.09462312 -0.16948377 -0.08877489 0.12397874 -0.030178336 0.107637696 -0.01792791 0.041774366 0.014414037 0.09986993 0.048661906 -0.17017867
24 0.04838948 -0.15960002 -0.19601919 0.021082763 -0.08138405 0.2027509 0.015243097 -0.010202483 -0.04080624 -0.0035219842 0.0448995 -0.048176475 0.035624556 0.09681474 -0.1164848 -0.16777591 0.14622459 -0.129837 -0.03773808 -0.014039696 -0.027445512 0.10885884 -0.08815337 -0.09011655 -0.053886008 0.07454147 0.008626288 -0.1106733 -0.11510899 0.17693259 0.09685546 -0.18026671 0.021686256 -0.0139753185 0.33183497 -0.0892056 0.036186513 0.21074724 -0.07132381 0.0033798148 0.21655706 -0.10387387 -0.053987622 -0.26803148 0.12136023 -0.13349293 0.021087326 -7.646053E-4 0.08542427 -0.19320685 -0.18055841 -0.11775559 0.07424955 -0.06802547 7.922263E-4 -0.16041793 0.25355858 0.056994677 0.0020968919 0.034844697 -0.031584814 0.009809622 -0.10886502 -0.05178189 -0.11088222 -0.065996684 -0.15549281 -0.023884935 0.17191829 -0.13877822 -0.22999245 -0.0042717764 0.097454205 -0.23049368 0.12060814 0.26012847 -0.07132516 -0.036792986 -0.034507602 -0.075437434 -0.03957246 -0.13352714 0.08799221 -0.08319995 0.11523217 0.12440827 -0.035262235 -0.057244077 0.008810016 0.012323578 0.08904162 0.008882588 0.042675745 0.0054448517 0.0013353358 -0.012372536 0.28734878 -0.01811169 0.15287006 0.09135052 0.17742148 0.06761278 -0.102992274 0.0025213133 0.06909356 0.27182424 -0.06202193 -0.07396885 0.031227425 0.052675888 0.13571672 0.02557285 0.24641013 0.029940307 -0.051510196 -0.0030185594 0.055381257 0.05551843 -0.0041607055 0.22938202 -0.119337395 -0.08155543 0.2748975 -0.13790722 -0.11603519 -0.16587047 0.006226186 -0.18736537
4 -0.10282042 0.1462582 -0.023382002 0.04037302 0.17212112 0.024385238 -0.23494145 -0.1677463 0.016719377 -0.07582531 0.022750087 0.087246895 -0.18039002 -0.03478122 0.025484215 -0.04216327 0.07363805 0.1259348 -0.0678911 -0.017351784 0.1988778 0.14800048 0.026919046 0.0861963 0.019843506 -0.0967642 0.0597209 -0.009374051 -0.113355756 -0.030519167 -0.15117338 0.119139835 -0.023994543 0.020556375 -0.3369253 0.050071474 -0.038199488 -0.107733175 -0.18544485 0.108847514 0.17948955 0.0146904085 -0.19476908 0.0896403 -0.07207384 0.24481206 0.05234938 -0.07111645 -0.1968049 0.21870218 0.016739627 0.14975846 0.061923344 -0.02263625 -0.044187125 0.13463818 -0.14230233 0.18765634 0.17419742 -0.058890037 -0.12885806 0.040509436 -0.1562493 -0.17791371 0.110351615 -0.09376403 0.12180129 0.022664303 -0.17932107 0.10814204 0.119267605 0.022100061 0.07023097 0.047018234 -0.09437602 -0.0013902602 0.11750962 -0.06630862 0.05971912 0.15515198 -0.0029660563 0.064541124 -0.2145959 -0.04197071 -0.01989305 -0.02116993 0.0027541178 -0.0515862 -0.056683656 -0.22132218 -0.057636246 0.15927337 -0.007089074 -0.09556601 -0.18210758 -0.02481697 0.16574445 0.020253872 -0.05538338 -0.11022605 -0.025911633 -0.043547966 0.26772094 0.0012300992 -0.116891086 -0.18245794 0.13929027 0.2438194 -0.061289575 0.09217976 -0.19254275 -0.12895784 -0.06411864 -0.061343 -0.08566941 -0.100831 0.05805383 -0.050629523 0.04900147 0.032197684 0.07600397 0.13756484 -0.061141297 0.074326485 0.037001725 0.16401823 0.03328873 -0.13350779
32 -0.019575385 -0.09326461 -0.16417795 -0.035908848 -0.022295874 0.034049217 -0.044610903 -0.026080418 0.093653105 0.08725747 0.041514203 0.02680346 0.071752295 -0.115536645 -0.058073394 -0.11106027 0.14193216 -0.18528181 -0.13717267 -0.022401752 0.06380297 0.022407731 0.008117914 -0.0115799345 -0.04620629 -0.12015175 -0.0029461423 -0.008460586 -0.18677753 0.15966327 0.1122597 -0.18207017 0.06501378 -0.054591034 -0.0039657135 -0.21560109 -0.15052688 0.2359359 0.008314432 0.020921191 0.10181857 -0.20827818 -0.12999034 -0.034335516 0.047690522 -0.039497994 0.04365738 -0.15596099 -0.031702872 -0.046505168 -0.08403743 -0.17280921 0.12120422 0.007940591 -0.082068115 0.0075425 0.18200205 0.18123429 -0.079323426 -0.09010957 -0.059034277 0.0434096 -0.07253622 -0.0514714 -0.10822097 -0.102155246 -0.08835496 -0.06127242 0.09785677 -0.15357384 -0.127358 -0.026361607 0.12868139 -0.20795926 0.17668644 0.20515527 -0.1406948 0.03203663 -0.110572554 -0.028462183 0.01717366 -0.20235522 0.11234977 -0.049114928 0.092339054 0.02930982 -0.115892366 -0.088552065 0.108330876 0.08224585 0.12654385 0.008332705 -0.08620421 -0.066936746 -0.11539006 0.06739292 0.21785685 0.03427349 0.0499465 -0.025424115 0.13787344 -0.059002995 -0.07049885 -0.098741546 0.23160157 0.062757604 0.008275255 -0.026007155 0.010675432 -8.9746364E-4 -0.08165578 0.038509782 0.11113486 0.001338086 -0.06968515 -0.014670891 0.07368399 -0.05038359 -0.009273262 -0.065009154 -0.074471585 -0.021575853 0.109749176 -0.11674586 -0.0044678324 -0.11768694 -0.06736973 -0.046481952
2 -0.01961388 0.15914486 0.074549474 0.09123929 0.17179067 -0.043249365 -0.118872926 -0.12550451 0.002054445 -0.1185311 0.037070185 -0.031708192 -0.06802679 -0.0048592547 0.1138384 -0.018150387 -0.056776036 0.06416691 -0.026278682 0.113663465 0.10895933 -0.027815089 0.09825049 -0.009496526 0.16210471 -0.06561506 0.13219976 0.040490452 -0.04684243 -0.12262127 -0.19664577 0.07214955 -0.1427578 -0.09958237 -0.26141006 0.07825921 -0.04900407 -0.011462667 -0.027485095 0.090666756 0.16532369 -0.03306347 -0.13628685 0.14306563 -0.10874142 0.1933712 0.023025382 -0.059328772 -0.1746809 0.18490796 0.048747156 0.15540351 0.07773768 0.046308745 -0.10736619 0.17790389 -0.15931772 0.048160683 0.28123355 -0.016017817 -0.15315601 0.05547387 -0.06271874 -0.14166538 0.038887616 -0.1583692 0.167025 -0.107639484 -0.19118443 0.07157574 0.16554347 0.065383844 -0.06223871 0.04636526 -0.1543913 -0.02897776 0.2564242 0.08274269 -0.016549237 0.12867713 0.1288572 0.12986745 -0.21233067 0.037925385 -0.12469546 0.016955327 0.11439666 -0.09743042 -0.052749347 -0.14899772 -0.083423905 -0.025021752 0.048389778 -0.034435924 -0.2115717 -0.08425044 0.050422497 0.079096936 -0.047235634 -0.12643643 -0.14716399 -0.035452798 0.12344514 -0.06408732 -0.018442675 -0.19583568 0.08702173 0.17495707 -0.17423731 0.03833318 -0.16615961 0.012573443 -0.048495103 0.010717249 -0.043679826 -0.015550708 -0.121026985 -0.18407016 -0.088119686 0.13239375 0.032665968 0.12061767 -0.18583046 0.12679864 0.01859177 0.010507073 0.068360716 -0.010993477
3 -0.024525026 0.045499485 -0.019805433 0.048605707 0.13147447 0.19371219 -0.26414955 -0.15230131 0.024131 -0.04644669 -0.033154935 0.10449938 -0.08262342 -0.014261195 -0.033535603 -0.1932472 0.16912015 0.05570062 -4.7605648E-4 -0.060407955 0.19557375 0.12208312 -0.12388666 0.0749322 0.044509172 -0.058245603 0.05778065 -0.010102198 -0.07941816 0.07374287 -0.093434595 -0.0036951357 0.06972679 0.042245403 -0.108249746 0.04396019 -0.022372235 -0.06867016 -0.16254121 -0.024351006 0.23974697 -0.019087516 -0.19690102 -0.04499032 -0.08649073 0.14003047 0.051598832 -0.09268786 -0.18928978 0.100222394 -0.097245984 0.112788096 0.13114011 -0.02500384 -0.099462904 -0.013564878 -0.025379432 0.144651 0.22634205 -0.05034397 -0.062391322 0.07905381 -0.1466307 -0.091146976 0.0089916475 -0.08082046 0.06299212 -0.01749146 -0.12681726 0.06798105 0.009566954 -0.07705808 0.24953437 -0.08098827 -0.11548981 0.09299371 0.10364575 -0.14994246 0.12024009 0.06392753 -0.07199779 -0.01325892 -0.065346636 -0.0964805 0.017612286 0.0058702957 -0.08519809 -0.124025844 -0.06357842 -0.18475918 0.025491377 0.087524556 0.0035016562 -0.028638046 -0.105685405 -0.020149508 0.32573232 0.008730696 0.1181794 0.024811711 -0.05471022 -0.043116502 0.16322467 -0.090060696 0.05423204 0.02873888 0.17743699 0.09496795 -0.08664668 0.13291906 -0.055903453 -0.17357564 -0.014945833 -0.036906887 -0.07214275 -0.056530442 -0.013493854 0.029576046 -0.009329342 0.121509254 0.010997023 0.058285397 0.118557945 -0.05182677 -0.09277616 0.11217297 0.12946181 -0.14199515
33 0.24608219 -0.04231497 -0.06519025 0.19483463 0.01782725 0.1216456 0.036328197 -9.888805E-4 -0.055639565 -0.14516035 0.14543149 -0.15990427 -0.07583192 0.10015616 -0.024166886 0.012241143 0.15386368 -0.11844741 0.17064817 0.0022087898 -0.021076147 -0.056795504 0.08574798 -0.08364526 -0.09415682 0.11122098 0.21411398 0.018720014 -0.1171583 0.05616267 -0.059181895 -0.2329251 -0.21035911 -0.09894772 0.21993944 -0.019182023 -0.0016959179 0.20665762 -0.11373098 0.047364254 0.18751626 -0.048667736 -0.105885044 -0.2418817 3.3516728E-4 0.00514178 0.01220693 0.0655763 0.122268915 -0.11482516 -0.05829078 -0.041340716 0.067836545 0.009423645 -0.07785562 0.0044076056 0.0020843784 0.1856569 0.1843882 0.08228869 -0.17306677 -0.09163136 -0.009542066 -0.038053274 -0.03840054 -0.12109208 -0.09732254 -0.13887808 0.21350826 -0.084707096 -0.06638125 0.19996455 -0.07414402 -0.036709916 -0.07406737 0.31757694 0.022788774 0.24006654 -0.09605745 -0.116304584 0.08132295 0.030075198 -0.07089397 -0.04175828 -0.18312992 0.03750904 0.053010125 0.017694551 -0.03775358 -0.16907251 -0.05805493 -0.0734653 0.2243368 -0.049793903 -0.07924595 -0.22935022 0.08310486 0.11614296 -0.02896369 0.08884604 -0.0022524619 0.16394345 -0.13702473 -0.1568373 0.15558201 0.062224824 -0.17943296 -0.1459662 -0.09090812 0.027431348 0.0016717212 0.1679506 0.26109213 0.06822568 0.07141507 0.05118491 -0.16183226 -0.1921072 -0.16303317 0.2737678 -0.057353757 -0.16745113 0.00369397 -0.09639579 -0.111778624 -0.20024052 0.026565205 -0.017331284
1 -0.07745331 0.0926524 -0.056979626 0.028596958 0.055261012 -0.15735045 -0.09127598 -0.10707292 0.10164822 -0.033647593 0.0038301998 0.0621233 -0.12093494 0.009329978 0.01630651 0.03399524 -0.07296171 0.08195339 -0.0754985 0.1198777 0.09815487 0.0813221 0.1115781 -0.08015766 0.081710935 -0.17876698 0.02200071 0.16648418 -0.055344198 0.06181747 -0.11457626 0.10338067 -0.033046693 -0.021048903 -0.18445554 -0.08186593 0.027503856 -0.06503526 -0.1630323 0.15173994 3.331048E-4 0.06991727 0.04074518 0.06949711 0.04541087 0.13997206 0.0556268 0.066677466 -0.12965749 0.17204481 0.07827524 0.08866626 -0.05895764 0.01919676 0.049982764 0.06955709 -0.041444045 0.089063585 0.118409574 -0.0063549033 -0.15667152 -0.029379377 -0.0984881 -0.12110629 0.06894658 -0.023017589 0.14523838 -0.025052762 -0.15261213 0.104791865 0.08419445 0.07003869 -0.08091601 0.22244011 -0.10400179 0.05343963 0.13277753 0.023082063 0.04739409 0.09457011 0.022478117 0.16880701 -0.16631773 0.122451134 0.057936233 0.038152665 0.020303076 0.08018971 0.13873063 0.06018408 -0.15423714 0.049866226 0.030985909 0.039260566 -0.04624087 -0.080819115 -0.0016858116 0.020176483 -0.14753081 -0.037343398 0.054236088 0.10227899 0.06359725 0.07221582 -0.1411696 -0.12228008 0.029971028 0.14010394 -0.045098446 0.06891383 -0.19731481 -0.06989281 -0.08148939 -0.08279653 -0.17954364 -0.063412316 0.02624069 -0.012818093 -0.021838818 -0.1005684 0.14650454 0.013281831 -0.1730139 0.058782775 0.007164889 0.014827508 -0.015294926 0.058593165
34 0.2074348 -0.08602221 -0.080370165 0.1459212 0.011458891 0.14196724 -0.004110635 -0.07209585 -0.0769872 -0.1044327 0.04387614 -0.11552856 -0.058723133 0.1186656 -0.066997066 -0.13799743 0.18485355 -0.07164438 0.13038191 0.028862773 0.048412204 0.0060702283 -0.0440114 -0.08417022 0.008327491 0.018528523 0.15169802 -0.019163337 -0.080175415 0.095309004 -0.03587406 -0.19746374 -0.10632941 -0.075991675 0.23226899 9.856857E-4 -0.014956265 0.09954821 -0.1587472 -0.0059900326 0.23163503 -0.07552879 -0.14602739 -0.23686965 -0.038261645 0.022294031 0.059158333 -0.001501492 0.053463217 -0.10663008 -0.06472531 -0.0014298527 0.1110265 -0.027264502 -0.09982424 -0.05853078 0.065993816 0.105844624 0.24242167 0.1020343 -0.13489422 0.0084365485 -0.038536724 0.025355559 0.011564168 -0.06554996 -0.025832148 -0.18281528 0.13399215 -0.059527516 -0.091632 0.080429055 0.080296956 -0.09923913 -0.11083741 0.28015298 0.07610664 0.06366207 -0.029840883 -0.09504176 -0.022005731 0.07101024 -0.036894675 -0.002751864 -0.1294215 0.079841405 0.005299132 -0.06464824 0.008228999 -0.18213561 -0.11246984 -0.13388623 0.14743307 0.030305332 -0.023608891 -0.19477421 0.19386137 0.015127428 0.08879614 0.07755058 0.027322426 0.14300326 -0.10127938 -0.10947014 0.12922649 0.15471157 -0.064135425 -0.09149563 -0.1540245 0.12764715 0.022270681 0.06473767 0.20298308 0.10897401 0.007802068 0.05632701 -0.11820988 -0.15608013 -0.099376164 0.23258545 -0.10250134 -0.11103228 0.09993791 -0.13795547 -0.20635729 -0.1988965 0.118190505 -0.072002254