34 128
12 -0.28836346 0.26546088 0.25805017 -0.026210116 0.2659735 0.0065937997 -0.0840547 0.012501416 -0.099906 0.08650695 0.097219594 -0.15696584 0.07667413 -0.008078537 -0.004702575 0.08062987 -0.16849382 0.061965514 -0.021883719 -0.031810325 0.03332332 -0.08501698 0.0038836796 -0.013205299 -0.030821849 -0.044937078 -0.008327937 -0.08220737 -0.09190855 -0.16271277 -0.0478905 0.25767532 -0.11863712 0.1536449 -0.08441074 0.115946926 -0.06925456 0.07203394 0.019602675 -8.1994187E-4 -0.05593671 0.17866698 -0.040191468 0.010988723 0.087751046 0.028846918 0.031780276 0.034598116 -0.13619322 -0.03170248 -0.20612344 -0.10220873 -0.025006475 0.008782937 -0.12713698 0.028198296 -0.109083414 -0.0704489 -0.038246125 0.13999748 0.00858508 -0.07270478 -0.062197585 -0.018008871 0.14951219 0.015335495 0.037388336 0.033185646 0.22475353 -0.17674953 0.025280535 0.12994829 0.12603696 0.21624155 -0.121120416 -0.13553496 -0.15248439 0.121178456 -0.011799919 -0.044987276 -0.11826537 -0.03718883 0.012327704 0.04161271 -0.06820402 -0.055071287 -0.14450347 0.22240466 0.05418178 0.030977663 -0.07686789 -0.016145054 0.027985333 0.12198233 0.07056139 -0.05099556 0.028234186 -0.10702455 0.08376146 -0.0064415154 -0.06868247 0.03835454 -0.0039340104 0.09320169 0.1272301 0.046635266 0.16576922 -0.068950824 -0.08205283 -0.14761241 0.030066019 0.006709037 -0.052563522 0.024817111 -0.21937865 0.07716634 -0.083355226 -0.015158154 0.009868042 0.025366759 0.047516584 -0.081714794 0.118481636 -0.120661594 0.15292534 0.053745665 0.019586612 0.04980563
13 -0.3388635 0.24940898 0.2726434 -0.025475197 0.3452758 -0.07500476 0.021272179 -1.6046083E-4 -0.136229 0.09555841 0.25119054 -0.10393052 -0.049276423 0.063410975 -0.050320167 0.08239911 -0.13767451 0.09228762 0.10793071 0.07855892 -0.04893692 -0.06973916 -0.028495256 0.010029203 -0.013420998 0.009080692 -0.02857253 -4.4983768E-4 -0.06984096 -0.18383573 0.08212036 0.22992828 -0.13391168 0.13393332 -0.07828063 0.20038293 -0.099731654 0.018640682 -0.02003737 0.15162563 -0.07219001 0.21607459 0.08769724 -0.0419071 0.01496249 -0.029220622 0.035188064 0.13975155 -0.1909032 -0.031238329 0.016901083 -0.011540873 -0.011805623 0.038861904 -0.08828609 0.111364156 -0.06462172 -0.18682544 -0.1396289 0.12011234 -0.02333417 -0.044906206 -0.04669741 -0.042222477 0.1446374 0.085221075 0.07250935 -0.024047669 0.21446584 -0.07991852 0.20038599 0.16014245 -0.026181849 0.29328278 -0.27919307 -0.16850743 -0.17715637 -0.011257933 -0.044084575 -0.22988757 -0.10144953 -0.09974634 -0.10245599 0.009624056 -0.09720803 -0.14328186 -0.21858478 0.22416243 -0.05472773 0.07406923 -0.0049589723 -0.04489729 -0.058312062 0.22560282 0.087751314 0.026991826 -0.12280549 -0.15727904 0.19488195 -0.02844207 0.014606948 4.5726154E-4 0.049841072 0.09843394 0.21677537 0.22512665 0.16727692 -0.15902181 -0.09128212 -0.22412285 -0.0608294 0.029960025 -0.105607755 -0.041037485 -0.19025981 0.03523981 -0.034012202 -0.077436395 -0.115316756 0.11474605 0.030614078 -0.13438171 0.13197799 -0.1841484 0.22919507 0.048850678 -0.06290678 0.1708372
27 0.06049157 -0.037140172 -0.43460113 -0.21385635 -0.12356198 0.13972178 0.098547906 -0.34354985 0.09024489 -0.19593191 0.092567675 0.20804998 -0.009438936 -0.052210763 -0.032341145 -0.07990362 0.13814364 -0.1230343 -0.10109568 -0.15654883 0.08578301 0.03623999 -0.044038277 0.07675654 0.20684043 -0.12699142 0.096359596 -0.04706084 -0.02991057 0.2703707 0.31976438 -0.1901221 0.25758478 0.04043951 0.19023216 0.14397565 -0.061930336 -0.10903866 -0.14583777 0.23672439 0.2324834 0.07283818 0.35771286 -0.14360408 -0.23230472 -0.32864946 -0.1324448 0.19657698 0.12511078 0.079196446 0.31938735 0.3123545 -0.02078465 0.081172526 0.39920625 0.04488624 0.070814006 0.044341754 0.07867311 -0.24910136 -0.28546506 0.14184962 0.0011141163 -0.11820195 -0.2067063 0.081125215 0.096296296 0.030757245 -0.1364643 0.27220038 0.0462227 0.09774611 -0.047631428 -0.13439527 -0.08029632 -0.034572292 0.12232946 -0.296598 -0.1576755 0.13103439 -0.11274721 0.055038977 -0.08680487 -0.07522813 0.045152802 -0.13218231 0.02649093 -0.14594503 -0.016069919 0.2561949 0.032230217 0.19789346 0.002668488 0.02782302 -0.09578643 0.086959 -0.18423556 0.0013087571 -0.051969074 0.064627685 -0.07156183 0.032027923 0.05977979 -0.050647866 0.0012833077 -0.01283036 -0.010396129 -0.07274764 0.06549844 -0.0011764392 0.035411853 -0.035077594 0.20514284 0.06375668 0.17197253 0.023829164 -0.019211477 -0.06454423 0.08309376 -0.08451823 -0.08586695 -0.08693674 -0.16616891 0.17845821 -0.18834077 0.0961749 -0.11007101 -0.17313842
10 0.041605785 -0.05196192 -0.11553359 -0.1005198 -0.02485231 -0.0056799627 0.11646569 -0.14444688 0.07225768 -0.025031958 0.2669582 0.11168938 -0.19440947 0.14480202 -0.06887432 -0.10881358 0.12884076 -0.025730258 0.08553766 0.10379153 0.08642131 -0.05510277 -0.007379442 0.061065234 -0.006519358 0.06271394 -0.01828443 0.0068438603 0.08008261 0.11418748 0.25469452 -0.008547257 0.021085009 0.0124163 0.1307853 0.109264195 -0.0751798 -0.016260484 0.021106096 0.15258536 0.034545254 0.07708354 0.105566725 -0.08488397 -0.061019294 -0.22976597 0.022837147 0.11711641 0.0304219 0.06639177 0.18469189 0.11935433 -0.011183746 0.028837072 0.11217747 -0.075265415 0.051676497 -0.24694069 -0.005743141 -0.032176364 -0.061288275 0.10071502 0.059120666 0.031394802 -0.071150675 0.034174558 0.028410006 0.004190068 -0.023748185 0.13070592 0.03599908 0.0015973587 -0.082486995 -0.014968556 -0.10487138 -0.002100082 0.15498711 -0.11177095 -0.2038877 -0.036753755 -0.030863108 0.041384447 -0.19207114 -0.13954581 -0.010183049 -0.19659708 -0.032204773 -0.118417285 -0.15582377 0.06110706 -0.0014784265 0.06503842 -0.072097495 -0.010240061 -0.055181682 0.14628519 -0.118060604 -0.046288442 0.015688844 -0.038948193 0.019989815 0.024897965 -0.0078108786 -0.046766426 0.019322002 0.28655806 -0.02238096 -0.06815673 0.08682016 -0.04626108 -0.1117111 -0.037263233 -0.011061118 -0.02185814 0.092313945 -0.027683552 0.04105636 -0.047799893 -0.09137045 -0.06471896 -0.06741606 -0.18585575 0.050135255 -0.0044801305 0.047589622 0.05879092 -0.058856007 0.03381987
18 -0.25832385 0.13126782 0.253488 -0.14044787 0.22509752 -0.047020577 -0.06502136 0.033557534 -0.030451527 0.14537925 0.105974704 -0.2114488 0.13104226 -0.01713668 -0.062102504 -0.07299909 -0.21274239 0.015087974 -0.06568121 0.04084789 0.03009956 -0.14358883 0.010285874 0.0049791103 -0.06749556 -0.052872974 -0.16049674 -0.04037302 -0.0040022824 -0.032716148 0.0066890297 0.2847684 -0.11300638 0.11076097 -0.019309113 0.090347216 -0.121893845 -0.03986833 0.02232678 0.057149656 -0.030839553 0.28746253 -0.07139085 -0.02577284 0.22171251 0.014475776 -0.04488382 0.11539874 -0.19563304 -0.048475 -0.24216074 -0.13323283 -0.08883795 0.039857205 0.053291686 -0.033762075 -0.09565976 -0.12289478 0.09268699 0.17029451 -0.058365654 -0.04313701 -0.021587105 -0.027281795 0.033161934 -0.01088186 -0.023561882 0.011760881 0.21781807 -0.13449886 0.044480227 0.11126335 0.14059578 0.18210126 -0.10610376 -0.104453325 -0.053945314 0.16270375 -0.036584053 -0.028184481 -0.099362954 -0.033040106 -0.103303835 0.003628632 -0.057832986 -0.12586246 -0.17604916 0.25928128 -0.07246385 0.08746022 -0.15426116 0.03261742 -0.01165214 0.15101269 0.04341133 -0.06520804 0.042178683 -0.10561185 0.117618166 -0.10133942 -0.11354236 0.16639848 0.051788162 0.06798227 0.059156116 0.11712999 0.15626073 -0.1994948 -0.07592246 -0.10545557 -3.166125E-4 -0.101413995 -0.098666325 0.092608996 -0.102323174 0.057880376 -0.07948725 -0.07832933 -0.0049952203 -0.032426823 0.04212119 -0.11369506 0.20468156 -0.12775743 0.05748302 0.008774125 -0.12411985 0.05793217
22 -0.27552158 0.15552054 0.26413092 -0.1363821 0.23893571 -0.031739555 -0.06571469 0.036872707 -0.04518728 0.13504256 0.12318084 -0.20789729 0.12150056 -0.01149772 -0.05125496 -0.06982341 -0.19591427 0.019164717 -0.045298018 0.04824776 0.035652637 -0.1446269 0.007217265 -0.0066531906 -0.061743416 -0.060628302 -0.14095111 -0.04546153 -0.010342019 -0.060461905 0.019917393 0.2931363 -0.12806726 0.120606005 -0.03268564 0.105449766 -0.12879673 -0.023465633 0.021760283 0.0633475 -0.046852667 0.28706172 -0.054466516 -0.015407155 0.21211635 0.0055734115 -0.053477112 0.10836493 -0.18953176 -0.059007954 -0.23307586 -0.123282075 -0.07064306 0.03338874 0.03271912 -0.024423981 -0.09053976 -0.12463908 0.09150396 0.16000172 -0.054553162 -0.038965028 -0.026517158 -0.028498754 0.059185375 -0.002332722 -0.026128383 0.027421938 0.21831773 -0.13962798 0.04501326 0.12089285 0.14662217 0.18134275 -0.10608095 -0.12989183 -0.06303313 0.14844412 -0.024959655 -0.024485562 -0.08721087 -0.03866575 -0.10186198 0.0045712404 -0.054069977 -0.114648 -0.18487786 0.27150038 -0.07748738 0.08537662 -0.15321845 0.022788297 -0.023192165 0.14908555 0.052307516 -0.0527828 0.02401106 -0.12222016 0.12738198 -0.0900425 -0.11617453 0.15296312 0.059607424 0.08138427 0.06346004 0.121280834 0.16161987 -0.18918073 -0.078537524 -0.12059591 -0.014974926 -0.07742778 -0.101956375 0.07609284 -0.112371385 0.061941817 -0.09201852 -0.08526147 -0.021595782 -0.019126108 0.025264725 -0.11894086 0.19371383 -0.13051258 0.0736042 0.029955687 -0.10886986 0.06504511
19 0.09406766 -0.16259308 -0.31276718 -0.103918895 -0.16109589 0.07694484 0.017121833 -0.22883083 0.12638795 -0.10229122 0.09434267 0.07573047 -0.014158656 -0.002666165 -0.0116425445 -0.07709463 0.23599575 -0.12523448 -0.08601081 -0.075400405 0.14474282 -0.01269025 -0.009034769 0.14614968 0.14668573 0.020459501 0.08672293 -0.010664616 0.103228286 0.20383085 0.16842031 -0.16115098 0.15851828 0.07026781 0.16136046 0.025018577 -0.024291055 0.0016140086 -0.084335856 0.088944204 0.17160417 -0.027959287 0.13821335 0.059778553 -0.15773034 -0.21395738 0.14166068 0.02677586 0.116587706 0.09508892 0.15554167 0.17015432 0.08606873 -0.048292637 0.2463744 -0.1502139 0.037628807 -0.048816755 0.037228968 -0.14490376 -0.08296 0.13896689 0.1484016 0.048712254 -0.11208171 -0.06178611 0.12554154 -0.0462769 -0.11357916 0.117681876 -0.061272986 4.221505E-4 -0.05482331 -0.13428606 -0.06033319 0.0442391 0.18465875 -0.13107367 -0.24114344 0.03273887 0.034034554 0.10540946 -0.110886864 -0.050857782 0.011557663 -0.14641193 0.07529676 -0.2078952 -0.07001534 0.110531695 0.02590235 0.18597893 -0.06768477 -0.06081193 -0.14543813 0.0072672493 -0.09656567 -0.034305386 -0.25695363 -0.031018442 -0.016737098 0.035760745 0.01588496 -0.08737055 -0.031086538 0.071895115 -0.10665047 -0.022448264 0.1440736 -0.00519608 0.082713604 -0.018818451 0.021908114 0.09392568 0.15753272 0.027335946 0.003138565 -0.005416964 0.07681707 -0.049251694 0.012325276 -0.007812522 -0.03075508 0.18422437 -0.124686636 0.089680694 0.078770824 -0.142863
23 0.08640064 -0.14171964 -0.29781556 -0.11256257 -0.16607696 0.07716446 0.0293649 -0.24487446 0.110044025 -0.104824364 0.0704845 0.07392791 0.017372075 6.2791404E-4 -0.008988113 -0.090751834 0.22606464 -0.12587686 -0.10496373 -0.09107068 0.14703286 -0.022316616 -0.010528639 0.15032047 0.122920714 -0.005199418 0.07823197 0.0057160617 0.068393745 0.2106621 0.16710447 -0.15469693 0.19344465 0.054488987 0.16007787 0.010717554 -0.009701292 -0.009474901 -0.07269038 0.08367644 0.17548515 -0.0019131035 0.14756653 0.033190817 -0.14636333 -0.24903323 0.09887874 0.051705666 0.110143304 0.07089946 0.13578346 0.1923344 0.07540079 -0.04478955 0.250301 -0.13756683 0.0249602 -0.040811382 0.05720895 -0.142288 -0.114636846 0.11352843 0.114330694 0.05541627 -0.108206816 -0.043946203 0.106896445 -0.04034546 -0.10972138 0.13685536 -0.07348985 0.0041781557 -0.0072165816 -0.14708489 -0.056739565 0.059529815 0.17668037 -0.122550674 -0.22121978 0.07724052 0.015223562 0.099428885 -0.10268536 -0.08246948 0.02116205 -0.1378667 0.06723796 -0.21514432 -0.08060354 0.10746313 0.022686515 0.1727129 -0.065612495 -0.051252205 -0.12627557 0.012363922 -0.09996636 -0.024559924 -0.23379885 -0.03512627 -0.0023039004 0.057696473 0.015467194 -0.10123967 -0.04118821 0.036608446 -0.087804705 -0.024531474 0.1265952 0.0042167404 0.08642929 -0.023816507 0.047361217 0.08642978 0.14937165 0.05740784 -0.008805006 -0.032177728 0.07923331 -0.054226648 -0.0027412698 -0.01800767 -0.028648382 0.15360393 -0.15799353 0.10270141 0.054040678 -0.16198394
21 0.07628843 -0.1591944 -0.29105002 -0.1297495 -0.17042808 0.059711467 0.023422088 -0.2526688 0.12146927 -0.10324565 0.061094735 0.048043 0.03941701 -3.5468134E-4 -0.013230841 -0.11988157 0.2387777 -0.14413688 -0.1171165 -0.08354133 0.14830607 -0.04198082 -0.008934802 0.17545387 0.121721916 -0.011816941 0.059847947 0.02593836 0.08977121 0.21214691 0.1617417 -0.14447828 0.21141358 0.049675573 0.173335 -0.002837962 -0.016559381 -0.016704684 -0.07894789 0.09782013 0.1803893 0.028184075 0.13422276 0.04474408 -0.1264084 -0.25836414 0.105863675 0.054260828 0.095108345 0.05885498 0.1200363 0.19434209 0.07508725 -0.0532301 0.27974156 -0.1527994 0.021090444 -0.0457444 0.07663856 -0.1423616 -0.12466447 0.114055835 0.13620467 0.06716894 -0.1073199 -0.064626075 0.116577916 -0.048559427 -0.10980215 0.12275029 -0.08158433 -0.0023559008 0.008947394 -0.164582 -0.06697698 0.04487584 0.19268157 -0.10787359 -0.23235948 0.08228909 0.022534488 0.09170174 -0.12916058 -0.086181596 0.008677385 -0.15288004 0.06362541 -0.21403877 -0.11861525 0.12129857 0.013654506 0.17986378 -0.09441448 -0.041714136 -0.12989864 0.004931764 -0.10071941 -0.048692577 -0.25130895 -0.06840945 0.0012224696 0.09027216 0.03429538 -0.103478044 -0.043932803 0.046481438 -0.08528669 -0.053607117 0.12643541 0.0015207776 0.10013254 -0.03799423 0.032381315 0.11474463 0.16547942 0.07343342 -0.018506749 -0.042612113 0.08062554 -0.048753172 0.00370507 -0.012462267 -0.014222258 0.1639202 -0.18456757 0.114096455 0.052560247 -0.17728633
17 -0.2304527 0.45630702 0.100393675 0.16124599 0.3326167 -0.041800603 -0.059998132 -0.19378431 -0.25123763 0.083991416 -0.25129992 -0.009257461 0.26736912 -0.12713276 0.04423679 0.45469862 -0.25891057 -0.073395945 -0.048328757 -0.27868044 -0.078424804 0.19233914 -0.04530962 0.15540358 0.060974732 -0.061871625 0.1703738 0.034683604 -0.39736935 -0.38160232 -0.30024529 0.12596409 0.14145108 0.16571279 -0.31514162 -0.11239898 0.24277872 0.26452506 -0.017400006 -0.34196475 0.070060134 -0.09519763 0.02313764 0.092386745 -0.3622544 -0.011126321 0.35655218 -0.07718801 0.03237566 -0.016037839 -0.23631768 0.0033530106 0.10061032 -0.13753918 -0.3792735 0.226979 -0.19313449 0.14403932 -0.3953045 0.20434614 0.16317683 -0.25454167 -0.18686533 0.2205342 0.37561634 -0.026112266 0.182927 -0.0366337 0.25169593 -0.081169166 -0.034187544 0.13666067 0.28328303 0.42796126 -0.11798392 -0.023492314 -0.2195472 0.20221546 5.6882924E-4 -0.11049462 -0.4326428 -0.053774577 0.29171184 0.11901614 -0.08435716 -0.026569484 -0.0010990545 0.06470347 0.27125776 -0.013912927 0.059304945 -0.12277058 0.22476083 0.16336007 0.0933822 -0.1749368 -0.02544672 0.13331836 -0.07402379 0.10024105 0.15093473 -0.10471326 -0.185763 0.1615488 0.19583997 -0.31019574 0.13203251 0.21784103 -0.21038693 -0.08459313 0.41683793 -0.021231242 0.17322545 -0.2000468 -0.4875622 0.15828839 -0.015088629 0.20644411 0.2619262 0.08850688 0.22949305 -0.18055548 0.08727966 -0.060971145 0.34504116 0.21126215 0.27935377 -0.16372827
16 0.08283244 -0.14962147 -0.29254362 -0.114467606 -0.16995542 0.05320886 0.010530896 -0.24318337 0.13124241 -0.11065589 0.07252361 0.031797856 0.022537226 0.0018218328 0.0013501161 -0.09853307 0.25944188 -0.14085251 -0.1170837 -0.0720711 0.148158 -0.044826537 -0.001261651 0.18493375 0.11942584 0.0041515897 0.074502155 0.0042986595 0.09513366 0.20225252 0.1456751 -0.15578373 0.19575378 0.057278894 0.16988882 0.002961202 -0.019752985 -0.006867708 -0.07105562 0.09663044 0.18275927 0.023136094 0.116417445 0.06490279 -0.1357008 -0.23452283 0.13470761 0.040526517 0.09088454 0.08853308 0.124373466 0.18662876 0.08429928 -0.058866285 0.2606259 -0.16242768 0.022699522 -0.038672812 0.06071502 -0.14546199 -0.104414955 0.12250083 0.15650322 0.06618599 -0.111430794 -0.082777284 0.12722707 -0.06037879 -0.105143294 0.088035494 -0.09705812 -0.008969415 -0.017632248 -0.15845877 -0.070429586 0.0481723 0.18397163 -0.10192955 -0.24055691 0.06321294 0.023980059 0.09501397 -0.1171913 -0.081996314 0.0010332053 -0.14746612 0.059084658 -0.21566646 -0.09409142 0.12437323 0.01666322 0.18941978 -0.09252157 -0.052388012 -0.13609989 0.005524459 -0.08691186 -0.046078213 -0.2794151 -0.07129608 -0.0030196025 0.080631636 0.01874514 -0.109730676 -0.043321725 0.05517754 -0.086248115 -0.038629774 0.13553266 -0.012913222 0.097280696 -0.029110663 0.03241603 0.13027495 0.15876555 0.05355721 -0.019122615 -0.02443185 0.085285954 -0.037322734 0.005002366 -0.0038249795 -0.016869089 0.17644584 -0.17002994 0.09660693 0.07252152 -0.17551887
15 0.09680978 -0.16473913 -0.2880448 -0.10587294 -0.17032541 0.0572051 0.012438497 -0.23583803 0.13093159 -0.08726913 0.0769823 0.044817448 0.015877577 0.010647276 -0.013958529 -0.09096544 0.24450666 -0.13306715 -0.11143285 -0.07332864 0.15521193 -0.034495812 -0.003605359 0.18277489 0.1147232 0.024889495 0.07067827 0.008177146 0.095691 0.21252465 0.13947129 -0.15770754 0.19056226 0.0691866 0.16454527 -0.0043610176 -0.012215568 0.0013527803 -0.06284191 0.068395376 0.17985633 -0.010201073 0.10655693 0.06387271 -0.14035821 -0.23187354 0.15741475 0.03861891 0.096152715 0.094097875 0.1100026 0.16196796 0.081249796 -0.057463896 0.24525525 -0.17581972 0.016964933 -0.059990555 0.049552612 -0.12446382 -0.084249936 0.1162906 0.15318073 0.073032156 -0.10765987 -0.07871578 0.124485835 -0.066050835 -0.09741357 0.10315099 -0.09553577 -0.014726002 -0.022224378 -0.13903247 -0.06891256 0.07980808 0.19337541 -0.08866548 -0.25260794 0.054810286 0.021810845 0.108191825 -0.113922246 -0.0820837 0.006892911 -0.15657075 0.069460124 -0.22770254 -0.08474199 0.10044465 0.02142524 0.1832469 -0.068796106 -0.066461086 -0.14672741 -0.0012053247 -0.080883026 -0.020978313 -0.27889797 -0.063497975 -0.0022103158 0.07102442 0.0015141597 -0.11238054 -0.043514553 0.06426567 -0.098122045 -0.028490763 0.14622653 0.0062075825 0.10663093 -0.032188635 0.027150799 0.11181924 0.14534062 0.04970491 0.004161506 -0.013819717 0.08438175 -0.053237192 0.028834576 -0.0031997391 8.8694616E-4 0.16705924 -0.15055212 0.09003882 0.080425404 -0.1594325
11 -0.30067432 0.36798707 0.14529619 0.058962412 0.30204585 -0.017651027 -0.13015147 -0.103413224 -0.16434434 0.06500442 -0.12605467 -0.15772985 0.238245 -0.13470198 0.06210581 0.27813387 -0.17301808 -0.049065776 -0.068716325 -0.17739564 -0.040146258 0.043972265 -0.029130563 0.11348299 0.08658286 -0.0718025 0.09048327 -0.041494228 -0.22869673 -0.30965528 -0.22350453 0.17305078 0.017197212 0.1864216 -0.22216135 -0.03531745 0.09539269 0.17511551 -0.054004584 -0.15777919 0.03535418 0.052511387 -0.012418281 0.13682096 -0.15609337 0.06676453 0.24892744 -0.088430904 -0.050735444 -0.04797396 -0.24055685 -0.04585431 0.091720335 -0.12073599 -0.22365642 0.13412848 -0.15902978 0.11615262 -0.22997941 0.12653354 0.10525497 -0.13285048 -0.058187068 0.10140982 0.2906306 -0.046760123 0.14545815 -8.047394E-4 0.21992755 -0.19840863 -0.017624417 0.15398052 0.20427904 0.31235155 -0.11825653 -0.16100761 -0.19146205 0.17654105 0.008132045 -0.101743534 -0.25675976 -0.070664406 0.16501214 0.14338365 -0.100753546 -0.031957444 -0.060416423 0.17746231 0.1751152 0.05041329 -0.0152480295 -0.03614734 0.06963282 0.14944908 0.06905977 -0.1655086 -0.001473645 -0.045137126 -0.082858115 0.023400199 0.02585542 -0.036133904 -0.02125532 0.16938174 0.1815287 -0.15375555 0.1493759 0.057299875 -0.15815948 -0.15512271 0.2714195 0.0068733566 0.026252424 -0.03179334 -0.35347632 0.14137968 -0.100023955 0.11581748 0.18215793 0.119638756 0.15356693 -0.078400984 0.062121168 -0.005596554 0.2166503 0.1739479 0.21605493 -0.09608283
20 -0.08837159 0.010769352 0.0975525 -0.124728695 0.06467839 0.033506308 -0.020797443 -0.038621493 -0.013286135 0.04379752 0.09835871 -0.07476707 0.054400526 0.020379111 -0.051610664 -0.1194251 -0.06011991 0.005948663 -0.016236953 -0.009899185 0.0809013 -0.082722746 -0.0150173465 -0.031518187 -0.055000495 -0.036108226 -0.065410234 0.0011833406 0.041477308 0.054704938 0.10296794 0.15519656 -0.05093792 0.03619868 0.04658139 0.07286809 -0.057612844 -0.02006535 0.042108577 0.031455584 -0.0017750292 0.15588434 -0.032058522 0.0036088824 0.14218071 -0.06832726 -0.06844034 0.05272867 -0.047598537 -0.05056389 -0.13873248 -0.027354065 -0.032901097 0.014904122 0.057158623 -0.07693372 -0.06398013 -0.10808609 0.1302621 0.070508055 -0.055338632 -0.007920811 0.0024000288 0.0050637927 -0.018281553 -0.0124059105 -0.04794412 0.054654863 0.07902281 -0.01643916 -0.010971468 0.037837196 0.143313 0.024600014 0.0010957442 -0.034088038 0.053989947 0.045543533 -0.073795915 0.08161001 0.0059081824 0.03192079 -0.11679352 -0.06892954 0.017985908 -0.05773829 -0.058909427 0.08442014 -0.10743049 0.017400546 -0.12018147 0.043632325 -0.030530712 0.03293977 5.2937795E-4 0.0034626985 -0.0029850993 -0.07439347 0.046295077 -0.050650917 -0.084698476 0.11952955 0.039067417 0.0052167494 -0.022324111 0.0733875 0.033763085 -0.09433457 0.004062411 -0.035396595 -0.042909987 -0.05940397 -0.048125636 0.020849828 0.016580129 0.057113424 -0.06783706 -0.0671252 0.010406965 -0.0864487 -0.009333764 -0.10962081 0.11955015 -0.059526883 -0.029192407 0.024977528 -0.099290065 -0.018108457
5 -0.30160046 0.3328412 0.18958531 0.08369542 0.34335566 0.024635468 -0.12248789 -0.09216424 -0.21288957 0.10716706 -0.017327156 -0.078137875 0.15006869 -0.10480004 -0.008336686 0.28526312 -0.21049088 0.02902933 0.02751699 -0.18728228 -0.0046427157 0.09474008 -0.04821116 0.04169265 0.05880271 0.0013799572 0.113593705 -0.0068119895 -0.18645 -0.30619147 -0.15081654 0.21303077 -0.076497056 0.19548304 -0.23318791 0.044240557 0.11233709 0.23779845 -0.0313199 -0.19713168 -0.0064190156 -0.032265943 -0.017155217 0.16982159 -0.15878496 0.079686366 0.31772846 -0.1336915 -0.0062265503 -0.050315198 -0.23430899 -0.07874617 0.102580555 -0.09988385 -0.32057244 0.107846856 -0.19663525 0.011680917 -0.29182494 0.16748513 0.17760007 -0.12992449 -0.047088064 0.118193455 0.31323972 -0.038499214 0.17422849 0.0069744103 0.26349288 -0.146106 0.042940427 0.170801 0.18395719 0.38131097 -0.12679514 -0.121057585 -0.1849628 0.138855 -0.053547747 -0.16615659 -0.20739973 -0.04490918 0.1042468 0.14665745 -0.105392165 -0.04635077 -0.03468638 0.15851337 0.15475832 -0.04779929 -0.023808936 -0.05421627 0.07428148 0.15566513 0.05214445 -0.13130856 -0.020010691 -0.02629782 -0.05695755 0.051451225 0.033437483 -0.084278494 -0.066569015 0.17225574 0.22367266 -0.062904 0.08551964 0.09485646 -0.1252968 -0.14333479 0.2379719 0.037473574 -0.041880995 -0.13824667 -0.36448604 0.11157533 -0.03613524 0.15065502 0.16708831 0.07164976 0.20270662 -0.128293 0.12732579 -0.04705836 0.31060955 0.15353562 0.20984395 -0.037619468
25 0.16570294 -0.2903275 -0.38447273 0.0054845256 -0.037317287 0.14012344 -0.008963929 0.0516587 0.082747184 -0.029190326 0.11124995 0.28388482 -0.21631257 -0.19066215 -0.07074979 0.05988363 -0.09621824 0.028537538 0.26378638 0.038321078 -0.18826546 0.31598035 -0.105250195 -0.19736879 0.35453916 0.14753999 0.054887217 -0.012351049 0.22842182 0.07672687 0.17546645 -0.21208918 -0.25160626 -0.026084889 -0.021407494 0.14736201 -0.011572474 -0.011577241 -0.16950637 0.057668976 0.06672801 -0.36427101 0.19318166 0.15870991 -0.21758038 0.30283082 0.12281553 -0.27878383 0.25404784 0.07296227 0.37223288 -0.03470862 0.06858351 0.094135135 0.08601413 0.1473502 0.12970492 0.1552257 -0.18184258 -0.20506999 0.19287483 0.24923675 0.16019389 -0.15552376 -0.118493214 -0.04857087 0.093141265 0.07615811 -0.16189887 0.17696553 0.27486446 0.08134709 -0.39880893 0.07552895 0.12992099 -0.13194308 0.092302285 -0.30352986 0.043555643 -0.3238828 0.15232839 -0.0067590587 -0.038214285 0.33903286 -0.049342707 0.06888257 0.20208284 0.07534614 0.07400139 0.026013283 -0.0024789555 0.09676072 -0.020010764 -0.0071056006 -0.13764259 0.025205616 -0.13127045 0.042362202 -0.0058969473 0.17711158 -0.0773955 -0.27587208 0.15621172 0.19987218 0.10147294 0.13888252 -0.26095033 0.046649158 0.02669204 0.058254387 -0.0781797 0.062252134 -0.15598084 -0.16914673 0.19206384 -0.33725822 0.15620448 0.23942988 0.08316941 0.024742516 0.07717063 0.044702716 -0.19883977 0.32704744 0.20656085 -0.06945168 -0.004966602 0.08372357
31 -3.956574E-4 -0.13875642 -0.062296744 -0.1805105 -0.06254227 0.01703192 -0.0032023285 -0.14932731 0.09652594 0.027932871 0.10849976 -0.06550352 0.06802045 0.015584759 -0.057645276 -0.18809406 0.0840385 -0.06905794 -0.09822708 -0.012002299 0.13802455 -0.09743336 -0.014334915 0.11134975 -0.013965698 0.03169071 -0.06968353 0.040012468 0.1332933 0.19340059 0.13352324 0.019881623 0.09083785 0.043078084 0.1399028 0.020381443 -0.037067007 -0.05149761 -0.001383551 0.070778064 0.110473216 0.13875553 -0.008080818 0.06027695 0.07754164 -0.15240937 0.06925603 0.06495701 -0.018855078 0.015295037 -0.0921393 0.034928937 0.003065791 -0.026789924 0.22517745 -0.19213904 -0.065043055 -0.12507373 0.15685436 0.011043067 -0.076457806 0.045196008 0.12626082 0.060649678 -0.11378046 -0.09842871 0.03550626 -0.0389884 -0.0014379187 0.045684133 -0.0657355 -0.00863528 0.0855021 -0.047321476 -0.042578463 0.07010053 0.17870332 0.022421392 -0.22676381 0.061630227 0.037215322 0.08776762 -0.19408803 -0.115597785 0.025032336 -0.15822786 -0.02316384 -0.069457054 -0.17811991 0.064527765 -0.09862391 0.16109122 -0.08433592 -0.008809558 -0.09186932 -0.008577387 -0.022834377 -0.07128332 -0.1539823 -0.131873 -0.06512506 0.1900863 0.030725345 -0.073421136 -0.06839203 0.11747165 -0.048604783 -0.124201916 0.104202494 -0.018391442 0.030499589 -0.11564027 -0.06703442 0.11841876 0.118651755 0.064037845 -0.029773355 -0.058008246 0.06052715 -0.1157535 0.046122424 -0.086497486 0.15543517 0.054936014 -0.14723492 0.04847914 -0.06286822 -0.094172165
29 0.12727815 -0.13837774 -0.19463906 -0.05270173 -0.052536707 -0.005475511 0.0017041937 -0.012925407 0.09690235 -0.010842949 0.22085443 0.057916567 -0.21484455 0.035072118 -0.07850304 -0.11115469 0.080554515 -0.042526416 0.13017067 0.13176005 0.03562517 -0.02002405 0.0036892716 0.015259818 0.05084424 0.07469602 -0.054165367 -0.04815991 0.18277372 0.08776053 0.19564345 -0.0046665804 -0.17048913 -0.025111387 0.08374513 0.071109876 -0.09690135 0.034911636 0.0096235145 0.06535682 0.010110072 -0.03391212 -0.007960071 0.051580086 -0.040126864 0.014283983 0.12438225 -0.10159776 0.11761851 0.08001779 0.16330919 -0.0072874357 0.021600485 -0.015875902 0.04128453 -0.108052224 0.08122973 -0.15068796 -0.047765266 -0.07868177 0.068255134 0.21998246 0.21648781 0.038621195 -0.055552773 -0.07332974 0.03463045 0.049082976 -0.035082012 -0.020373665 0.012706428 0.018226985 -0.14382872 -0.033639513 0.05113683 -0.11164387 0.18160425 -0.05844631 -0.1543234 -0.09971434 0.03210615 0.027560746 -0.19531508 0.035368543 -0.087287836 -0.13895707 0.075556286 -0.0342123 -0.06423607 0.05969176 -0.06749091 0.071530335 -0.101433076 -0.05729313 -0.119107984 0.103718854 -0.043999825 -0.0276229 -0.07701387 -0.04005784 -0.043826357 -0.054056823 0.044909403 0.023306541 0.019674812 0.32857853 -0.1072331 -0.032552887 0.05432084 0.01922637 -0.115643546 -0.015455117 -0.11147791 -0.024404012 0.14427237 -0.12952176 0.05921415 0.08239213 -0.016433932 -0.05429446 -0.038708247 -0.12102269 -0.0023668245 0.15379855 0.10970753 -0.025125828 0.019977784 0.0072611896
26 0.1650058 -0.3239804 -0.3594237 3.075292E-4 -0.09713812 0.0035018965 -0.004592521 0.056980677 0.09702256 -0.071679994 0.07153779 0.1472801 -0.16669014 -0.18777406 -0.031394355 -0.010775638 0.03962793 -0.016075527 0.2341696 0.10765132 -0.23513784 0.22527833 -0.09880395 -0.0684965 0.318409 0.11238175 0.015571621 0.055671614 0.2704072 0.042439397 0.14396004 -0.26920667 -0.16838995 -0.11728636 -0.001042481 0.07739735 -0.013645559 -0.06423935 -0.1776328 0.14310671 0.07601915 -0.24523684 0.14481793 0.19598499 -0.19948696 0.2903641 0.13117234 -0.2450506 0.17674528 0.047105324 0.403287 0.034709044 0.094779596 0.039083157 0.14811389 0.13147543 0.13623583 0.19780993 -0.15909313 -0.2563552 0.14116535 0.27112213 0.24842077 -0.13012567 -0.11590427 -0.096071504 0.11190153 0.011115229 -0.19271235 0.08491296 0.24086957 0.023089554 -0.4230814 -0.011650234 0.08152966 -0.16583398 0.07616822 -0.2949112 0.070394315 -0.34263277 0.18341413 -0.07859266 -0.10673399 0.28004706 -0.0931646 0.07147487 0.15455654 0.044807754 -0.023158118 0.08562115 0.01950309 0.081146635 -0.14906946 0.03774498 -0.1042449 0.04026145 -0.14709365 -0.018353626 -0.09866674 0.05223034 -0.011871654 -0.1967078 0.23051576 0.14475223 0.0815936 0.15217465 -0.23997544 -0.034360655 0.0033530754 0.012310078 -0.07987723 0.07062382 -0.17121452 -0.06141817 0.24912488 -0.286959 0.12116926 0.18223 0.04278934 0.12323404 0.044778656 0.11391394 -0.22151245 0.3526709 0.07470247 -0.09094097 -0.017212693 0.05333966
8 -0.2533838 0.09901127 0.21116762 -0.112160005 0.2422716 -0.10832901 0.040195715 -6.963996E-4 -0.04787003 0.11075041 0.24776703 -0.123343304 -0.028318178 0.062241398 -0.08168157 -0.07213182 -0.10946319 0.04583006 0.073054224 0.13872649 -0.03012432 -0.11681591 -0.021438291 0.03657624 -0.047662012 0.01721094 -0.13913263 0.030201307 0.02769462 -0.06492749 0.12143111 0.20441252 -0.10421055 0.067975335 -0.008616987 0.15132907 -0.12190657 -0.050049298 -0.0057316734 0.18820019 -0.05292833 0.27293906 0.041274704 -0.053301144 0.10651333 -0.050669383 -0.012115997 0.1591677 -0.18436055 -0.040994205 -0.0091449665 -0.023891859 -0.05339744 0.04765847 0.05656928 0.026157137 -0.04335907 -0.2161682 -0.021014879 0.10712397 -0.05865149 0.0022500458 0.018729419 -0.028984392 0.036201853 0.0438509 0.028576577 -0.02270258 0.16037402 -0.045425076 0.16171764 0.10244924 -0.017912524 0.19950894 -0.2134945 -0.13194005 -0.04586005 0.021769566 -0.0753539 -0.17616794 -0.06408492 -0.085846655 -0.1919354 -0.03979528 -0.0874717 -0.18062583 -0.20538218 0.18785146 -0.17062187 0.101485334 -0.07147968 0.005573276 -0.10630236 0.191028 0.04337368 0.038259584 -0.08772908 -0.15204121 0.16061568 -0.113624476 -0.014106576 0.1031424 0.084902525 0.06344907 0.12715305 0.2819679 0.122506596 -0.22509931 -0.061342187 -0.16851069 -0.09481004 -0.05322895 -0.13717997 0.027304849 -0.058088135 0.014478722 -0.022033056 -0.10069641 -0.1148302 0.050284885 0.008951402 -0.15539367 0.16553722 -0.13735935 0.11221544 0.02687189 -0.14463213 0.14302452
30 0.04535625 -0.10227592 -0.39240286 -0.096817724 -0.172432 0.06104731 0.12604584 -0.22786361 0.032651458 -0.18722638 -0.034936797 0.16821793 0.04168713 -0.07761918 0.03870566 -0.05525389 0.24371724 -0.12644339 -0.057997625 -0.06869884 -0.009534013 0.07030868 -0.059056357 0.09445411 0.25454146 -0.13261016 0.10113769 0.053731307 -0.051943023 0.17019822 0.2251052 -0.28944734 0.28548437 -0.012660917 0.1015766 0.01407145 -0.009811881 -0.121198066 -0.19241668 0.24087784 0.18150115 0.014660273 0.37840492 -0.09140773 -0.2604166 -0.2817421 -0.13964541 0.17992914 0.108653955 0.011671198 0.39814138 0.34395906 0.08312775 0.021298775 0.37618178 0.13554697 0.15336348 0.115461044 0.021385083 -0.28584242 -0.24517164 0.08518126 -5.7254685E-4 -0.06464947 -0.113087684 0.12033241 0.08211692 -0.028353455 -0.23238018 0.26812193 0.108872555 0.07737039 -0.11633204 -0.20402877 -0.1153481 -0.03681535 0.06316929 -0.3220029 0.0070381276 0.043756045 0.030974098 -0.026532888 -0.033405557 -0.04820969 0.05658255 -0.04835716 0.009107287 -0.17087317 -0.07311721 0.21640171 0.16750412 0.12424317 -0.09822873 0.05150375 -0.056773093 0.050927382 -0.23881415 -0.022505825 -0.03069429 0.04094663 0.041121747 -0.021833718 0.15064588 -0.03033217 -0.0030298303 -0.082113594 -0.0340169 -0.07933042 0.02102767 -0.011641742 0.03491221 0.04794408 0.13711703 0.022105984 0.20702925 0.042250376 -0.03536623 -0.13705982 -0.011674839 0.097538166 -0.11066816 0.07560227 -0.22261934 0.13666962 -0.23378104 0.13458101 -0.038039666 -0.1073909
9 -0.057825446 0.020085402 0.006704539 -0.044370376 0.017249968 0.033582196 -0.003640189 -0.09229032 0.027284354 -0.03501968 0.207991 -0.020038957 -0.11924986 0.0913946 -0.005710264 -0.06265087 0.15797463 0.024917316 0.041325487 0.02331976 0.10695929 -0.10135489 0.0044092773 0.044609588 -0.0132248225 0.07125144 0.053234674 -0.027576346 0.09373364 0.011867127 0.12165219 0.038457498 -0.022238756 0.049592495 0.08824184 0.10424792 -0.050814368 0.05416031 0.008871354 0.10695835 -0.010230933 0.07557932 0.016076501 0.04319653 0.006506406 -0.09667344 0.091926105 -0.018611403 0.0077783857 0.0131132575 0.032757647 0.056266535 0.03867643 -0.0218987 7.8652275E-4 -0.11088545 -0.033216327 -0.15608604 0.0013100686 -0.0329358 4.1831363E-4 0.07458358 0.10326422 0.007873032 0.0139943715 -0.01942314 0.07582413 0.016158065 0.0073005236 -0.036886033 -0.02880628 0.0011686881 -0.027948344 -0.017507868 -0.08427168 -0.06180045 0.0578369 -0.057597835 -0.16484967 -0.012797178 0.053692915 0.029616427 -0.13412865 -0.069880046 -0.032767806 -0.08853015 -0.019911317 -0.06132118 -0.09136765 -0.0049397913 -0.020033324 0.06392802 -0.117305815 -0.028633852 -0.031329688 0.07511586 -0.03441944 -0.143301 -0.08277135 -0.05407442 -1.6994536E-4 0.012524887 0.020448374 -0.028936233 0.05447948 0.19499688 -0.012668696 -0.026008591 0.094508916 -0.10374722 -0.069351606 0.044156708 -0.069482654 0.04938334 0.022033796 0.044449344 -0.033059277 -0.032921266 -0.03902778 -0.00972159 -0.019795502 -0.05172802 0.03196252 0.019655718 -0.0060613574 0.07184493 0.05229468 0.009444296
6 -0.23113081 0.3714108 0.17740802 0.122182 0.3126542 -0.062347066 -0.08653368 -0.15727887 -0.19703579 0.10335449 -0.04946415 -0.07782738 0.13405207 -0.051233213 -0.019973204 0.34313127 -0.18922447 0.012203755 -0.025242662 -0.20177229 0.0030836456 0.07977251 -0.031088613 0.16285162 -0.04000143 0.037174854 0.115296096 0.02621999 -0.22884676 -0.3065276 -0.23124973 0.16736539 0.034814835 0.16522844 -0.22342998 -0.017561663 0.17376012 0.2621763 0.01907664 -0.2431778 0.019183382 -0.040216893 -0.08736314 0.14702804 -0.23464452 0.040144026 0.42714065 -0.09245922 -0.030023808 0.019511009 -0.24988975 -0.06890739 0.065813966 -0.13198438 -0.36241016 0.06373278 -0.24357896 -0.00593353 -0.35944363 0.21044874 0.19309314 -0.16029303 -0.029639412 0.1871908 0.2963991 -0.08820584 0.22200774 -0.06345833 0.29530767 -0.15761773 -0.030228335 0.09662935 0.18529567 0.41283268 -0.1571248 -0.0130016375 -0.1805362 0.20475267 -0.12697199 -0.16815217 -0.33033767 -0.044223927 0.12975055 0.07817905 -0.12960759 -0.09909158 -0.023221098 0.04341325 0.1947754 -0.05998136 0.00334928 -0.08117381 0.13023274 0.13919213 0.046783015 -0.115372114 0.018598495 0.06237225 -0.14859574 -0.005958583 0.106945544 -0.05513564 -0.19221884 0.09583475 0.20630087 -0.079779804 0.09791917 0.15468407 -0.11187587 -0.11252459 0.30791894 -0.023277178 0.04125025 -0.1102566 -0.42335206 0.11650176 0.03233816 0.20702302 0.20462047 0.03802509 0.26210305 -0.17652902 0.17045099 -0.048123464 0.31014785 0.109658286 0.237831 -0.08895602
28 0.13160518 -0.21113142 -0.23617214 -0.028616417 -0.07754388 9.59352E-4 0.0771048 -0.04240409 0.078964524 -0.080377966 0.13330562 0.17660882 -0.19624376 -0.03091661 -0.024392795 -0.042053875 0.07736819 -0.009718701 0.22402509 0.09479143 -0.14959592 0.1457584 -0.07970002 -0.060640946 0.17005928 0.10419531 0.02929914 0.07189957 0.18742757 0.038771998 0.19564168 -0.18321781 -0.05758894 -0.12070902 0.04537857 0.096419066 0.012231599 -0.058702853 -0.0771102 0.14855748 0.045403045 -0.12679309 0.13566062 0.073963255 -0.14956257 0.07451039 0.036617566 -0.106146224 0.12831375 0.024616433 0.3277546 0.09884784 0.046245117 0.04944324 0.09793912 0.09249089 0.085719 0.044872668 -0.08959872 -0.1613256 0.07390647 0.1608236 0.10928331 -0.080887176 -0.09938627 -0.02281181 0.03984985 0.0369972 -0.15438426 0.1595478 0.17000946 -0.04009594 -0.26976728 -0.016684445 0.037942693 -0.07492292 0.10750564 -0.25628984 0.0021206888 -0.19929038 0.097766794 -0.038637325 -0.11200127 0.07835548 -0.019284848 0.027753906 0.07781918 -0.03448781 -0.107231855 0.03371961 0.013092371 0.03897364 -0.10584934 0.0110326065 -0.0433576 0.11275922 -0.1523236 -0.029186191 -0.0062946165 0.046255242 0.029756648 -0.11520795 0.1327833 0.06881113 0.0407764 0.14397666 -0.15873587 -0.013930545 0.029670522 -0.02608213 -0.12346275 0.03547207 -0.07189074 -0.096139126 0.18376063 -0.18570538 0.07613686 0.09367192 -0.01718276 0.042811107 -0.024125377 -0.026169157 -0.13651028 0.17904203 0.05758574 -0.01423185 -0.06994606 0.043681584
7 -0.2382981 0.40721196 0.14136519 0.08969379 0.28601408 -0.1055705 -0.10294701 -0.14884594 -0.13780315 0.08044289 -0.13122049 -0.1623744 0.19465005 -0.08867453 0.036316033 0.33513004 -0.16532513 -0.040415753 -0.121777184 -0.18391253 -0.03938693 0.025224121 -0.008378755 0.22902319 -0.014369143 -0.01505192 0.08250232 -0.031672627 -0.2593839 -0.30890745 -0.31167287 0.12191525 0.10103256 0.1657023 -0.21535064 -0.07580773 0.15376028 0.18848343 -0.018576723 -0.18747711 0.050008375 0.041663434 -0.087338224 0.10958914 -0.22044595 0.07055813 0.37224713 -0.0558018 -0.085220546 0.040200397 -0.2503758 -0.0742851 0.036206134 -0.14606175 -0.27074644 0.08974903 -0.2106719 0.10288857 -0.31462187 0.16933493 0.13785101 -0.14783736 -0.019663248 0.13839844 0.26305678 -0.093522415 0.20498809 -0.08685463 0.2643012 -0.22433203 -0.073174156 0.08775348 0.1600671 0.37036538 -0.16070691 -0.058360573 -0.19952518 0.23826046 -0.07708355 -0.14163086 -0.3771324 -0.08715669 0.1815938 0.08499386 -0.13613605 -0.1000458 -0.06903281 0.07946481 0.23288053 0.04647627 0.012282818 -0.04926837 0.1245367 0.13442415 0.056927472 -0.14733496 0.057862837 0.04628609 -0.17158258 -0.03470493 0.07185109 -0.013985431 -0.15208827 0.098666735 0.1875831 -0.13072796 0.1714579 0.10371062 -0.13011147 -0.12755379 0.3324447 -0.05515301 0.081069306 0.0142255565 -0.41698438 0.12248301 -0.0130857825 0.19152917 0.20669875 0.0827603 0.22312592 -0.1078474 0.10621479 0.01603822 0.2212884 0.10454013 0.23229304 -0.109085865
14 -0.14984338 0.07206483 0.13384078 -0.08619318 0.14728972 -0.055979542 0.056870773 -0.07076074 -0.050083797 0.038358383 0.23373091 -0.044065505 -0.084856644 0.10586705 -0.0618072 -0.077142596 0.005349664 0.04494964 0.08606211 0.07635476 0.030146122 -0.09154793 -0.02891354 0.022640258 -0.06991923 0.033833347 -0.04929694 0.046618138 0.034061268 -0.02105321 0.16469617 0.13491516 -0.044486046 0.024488421 0.033271447 0.13486902 -0.0625974 -0.016549261 0.021809934 0.14489795 -0.035182882 0.19206274 0.04344473 -0.028836489 0.051760636 -0.116773784 -7.6571445E-4 0.11226584 -0.09046011 -0.03650383 0.024429355 0.04476354 -0.013667356 0.008746613 0.012190851 -0.015617419 -0.05034157 -0.21531376 -0.011660758 0.0586222 -0.045738116 -1.4518957E-4 0.026887149 0.010655949 0.022900805 0.03162019 0.020335712 0.0025712973 0.08276533 0.004630939 0.09279975 0.050243158 0.016510792 0.10663807 -0.14433065 -0.07732444 0.0046167774 -0.03568032 -0.1210885 -0.07808041 -0.01402311 -0.03333877 -0.18463019 -0.11033874 -0.025501596 -0.13197255 -0.12538444 0.051015835 -0.15884946 0.03912671 -0.041265156 0.009162865 -0.10953386 0.10459546 0.025457587 0.086581714 -0.10012747 -0.12673594 0.09744119 -0.077511586 0.01059873 0.07095776 0.043975186 0.009336372 0.072671406 0.22821608 0.053074893 -0.13029577 -0.0026995514 -0.13192026 -0.10567732 -0.024670228 -0.086256 -0.02165188 -0.019261437 0.04698108 -0.031341095 -0.088899165 -0.09265405 0.0013716626 -0.018129082 -0.16109775 0.12262876 -0.11019325 0.056087263 0.03880839 -0.102220066 0.06758911
24 0.08869126 -0.20055555 -0.37437937 -0.092785075 -0.08361282 0.18103035 0.07177772 -0.18811595 0.054207783 -0.11163291 0.06855054 0.28839228 -0.072179995 -0.12760884 -0.045683276 -0.0074699847 0.020335693 -0.026789468 0.09886289 -0.1108101 -0.051975247 0.22241609 -0.1114653 -0.08511753 0.28371724 0.04276629 0.101455815 0.05040216 0.09349335 0.18441088 0.24981736 -0.21711351 0.070357956 -0.0018959449 0.07691114 0.14209841 0.016422246 -0.048770398 -0.16136403 0.12684499 0.16910316 -0.18398714 0.3226354 0.017262638 -0.23336913 -0.050384298 -0.0020238534 -0.05475484 0.21705958 0.01052788 0.32161164 0.18203907 0.040467314 0.094011396 0.24994765 0.10692535 0.060002726 0.10043081 -0.036130328 -0.20919038 -0.053958207 0.13958274 0.031129798 -0.1330309 -0.15413418 0.04102068 0.09206781 0.05614439 -0.17709935 0.32849172 0.18352205 0.07454401 -0.17095995 -0.022240944 0.02232118 -0.013338299 0.106504895 -0.3395771 -0.049814787 -0.08798623 0.06779773 0.035656694 -0.06017401 0.119095795 0.041437566 0.0138352765 0.13152578 -0.06799207 -0.03510933 0.07335476 0.032457963 0.13974287 -0.014247164 0.017807048 -0.10682426 0.043136686 -0.18280543 -0.002590585 -0.014792676 0.13820061 -0.027253577 -0.106838666 0.12107761 0.077629596 0.060511086 -0.0037486257 -0.17846145 0.008144859 0.07200618 0.03360226 0.004468782 0.026720928 0.02513421 -0.09611472 0.19095936 -0.11671661 0.07390843 0.06161596 0.102377295 -0.03773797 0.028255768 -0.003810369 -0.16586965 0.20641012 -0.034800116 0.07437141 -0.07223155 -0.05097913
4 -0.2972033 0.115415834 0.17987156 -0.13827567 0.27638465 0.0020758447 -0.018303808 -0.029635742 -0.052206147 0.12018037 0.32754183 -0.07812583 -0.037062835 0.05579259 -0.15671182 -0.059066117 -0.18522698 0.061388772 0.026734889 0.0424931 0.08697527 -0.13782437 0.0032783423 -0.009302272 -0.030460613 -0.001934714 -0.12143773 -0.025237657 0.035509393 0.002124811 0.18005818 0.28964317 -0.17429422 0.16747905 0.030628543 0.23800546 -0.18597296 0.024380488 -0.03013329 0.1656036 -0.055989098 0.23118867 0.073156 -0.08894479 0.13011238 -0.06672037 0.027980784 0.15185164 -0.13722979 -0.024016393 -0.030295746 -0.04630471 -0.05838338 0.06856063 0.06186421 -0.059245378 -0.070238456 -0.29378822 -0.02152588 0.105752155 -0.09595943 0.07394017 0.03775811 -0.0469896 0.03742471 0.06271706 0.08291691 0.0217935 0.24955267 -0.012752968 0.17054749 0.18394819 0.016884258 0.20485786 -0.21565546 -0.15999894 -0.050069522 0.0048541613 -0.15575716 -0.12971765 -0.09425463 -0.044660654 -0.22311823 0.011904545 -0.12824635 -0.22848625 -0.15555029 0.2186584 -0.109965675 0.07719239 -0.08899373 0.03722671 -0.061231818 0.19048043 0.006120076 0.006044773 -0.06559877 -0.13273543 0.1554851 -0.085570596 -0.08148334 0.070446715 0.055487122 0.049165707 0.19325227 0.34266505 0.11493671 -0.21760738 -0.049480245 -0.13000941 -0.046532333 -0.0425977 -0.14458922 0.04408481 -0.08379626 0.023648612 -0.007072482 -0.088507004 -0.0783994 -0.040320747 0.033944864 -0.18230757 0.16790494 -0.15057333 0.14175878 0.022028165 -0.11980778 0.13536304
32 0.0152345225 -0.18961827 -0.18629937 -0.07213572 -0.04287577 0.23196886 -0.16262689 0.05014064 0.11012444 -0.047215622 0.13481799 0.056470614 -0.0748517 -0.12669155 -0.01740701 -0.020924998 0.011854477 0.022216626 0.04612594 -0.083324865 0.060763743 0.076668404 -0.019306589 -0.18589665 0.24120256 0.06528694 0.0944222 -0.13888484 0.23886696 0.10516137 0.117801964 -0.031509485 -0.24411403 0.119140685 0.073228255 0.17228392 -0.08695193 0.027047442 -0.12343027 0.032309666 0.023210656 -0.17423113 0.03348483 0.21248832 0.042938925 0.23082882 0.05569894 -0.2367811 0.13476557 0.04692966 0.058449246 -0.091599084 0.0986949 0.019207397 0.07959061 -0.093314625 0.029079758 0.08762969 0.050242357 -0.15005487 0.10595197 0.20656769 0.1718588 -0.13545524 -0.079398975 -0.09666713 0.07014946 0.10509001 -0.061447106 -0.04290839 0.058130775 0.052600242 -0.16619073 -0.06304381 0.12716681 -0.1531405 0.07307842 -0.15407446 -0.052748684 -0.0483354 0.22666778 0.08808392 -0.022219434 0.22726776 0.0050704367 0.07596278 0.14506097 0.10220318 0.095228 -0.013689329 -0.08273551 0.16816181 -0.05479823 -0.08165326 -0.11822111 -0.056550168 0.017760776 -0.098320134 -0.13516751 0.108171105 -0.20380679 -0.13708039 0.12816706 0.08439552 0.02072665 0.069050476 -0.16210121 0.010456645 0.10239021 -0.025815008 -0.034966115 0.09132596 -0.18754211 0.043801043 0.13327706 -0.132941 -0.043480642 0.11940869 0.07987915 -0.04578751 0.02328565 0.12586428 -0.11958038 0.24983577 0.025694491 -0.03985471 0.06615961 -0.007882801
2 -0.18829285 0.17538211 0.0663924 -0.23029178 0.17574622 -0.12264765 -0.05056851 -0.08358987 0.101414375 -0.008189067 0.17249238 -0.19673829 0.04837283 -0.0037859194 0.016716478 -0.08864976 -0.105513066 -0.100168325 0.0048992946 0.12055852 -0.09131653 -0.1696155 0.0072757 0.07624298 0.036900867 -0.123689726 -0.107314184 -0.086667426 0.051432878 -0.08546263 0.12923923 0.23608491 -0.06881466 0.011062385 0.059797835 0.14010455 -0.19483721 -0.117560536 0.03381433 0.19803962 0.052351475 0.44001657 -0.016812714 -0.017311577 0.11497526 -0.06500698 -0.130336 0.14395379 -0.18551221 0.04869979 -0.06253252 0.04262483 -0.1301466 0.08645745 0.17287867 0.060648404 -0.006495597 -0.007310823 0.11697856 0.03936233 -0.11543596 0.06746311 0.0033523096 -0.07633538 -0.003413857 -0.097667396 -0.0058946772 0.07472036 0.15654846 -0.21133731 -0.014675278 0.047918934 0.061947156 0.10874382 -0.093380444 -0.296295 0.007997867 0.09532106 0.0015317241 -0.011378215 -0.262195 -0.072179824 -0.11653148 -0.007461733 -0.14406149 -0.13795674 -0.18352696 0.28368717 -0.11412501 0.29642573 -0.22667368 0.06023952 -0.071619526 0.16921285 0.0722587 0.04980643 -0.026456235 -0.15503 0.048819866 -0.09136194 -0.108834565 0.19877474 0.119754866 0.076450765 0.02824866 0.1286298 0.21910153 -0.23830996 -0.13880946 -0.19113684 -0.029709069 -0.11049695 0.037704896 0.1551533 -0.018088974 -0.017068725 -0.15516046 -0.03441824 0.018348338 0.051622603 -0.09253615 -0.20859131 0.051885992 0.030826632 0.100211754 0.03061087 -0.15726252 -0.07479411
3 -0.13904496 -0.08365069 -0.05369274 -0.13619916 0.12161976 0.10645502 0.042511813 0.0039214743 0.051459435 0.12961765 0.21706136 0.080262564 0.0013707512 0.0031169516 -0.10571607 -0.058643643 -0.13711005 -0.032007083 -0.016320584 0.06363953 0.090280935 0.008661002 0.0010796739 -0.06928977 0.16857502 0.014808836 -0.0641558 -0.0802279 0.031025099 0.13722244 0.2019292 0.10635116 -0.120622374 0.22504257 0.03414622 0.15581222 -0.16870327 -0.058317553 -0.100188054 0.082186446 0.041866675 0.03157639 0.19481279 -0.08413011 0.036964748 -0.12334527 -0.036920834 0.16313596 -0.03982162 0.056306425 0.09057761 -0.047464177 0.0256742 0.09154888 0.1886149 -0.024047239 0.09701045 -0.20916124 0.042797085 0.058366366 -0.07820936 0.053135864 -0.05638954 -0.03403202 -0.046149325 0.1160173 0.0032927727 -0.02421751 0.06632831 0.15361904 0.17993194 0.17328739 -0.06910302 0.11771371 -0.16351643 -0.020946056 0.067699246 -0.062646836 -0.12648395 -0.11791361 0.02402581 0.0885808 -0.09431922 0.043183953 0.030315489 -0.21554907 -0.09827207 0.13121654 -0.059664015 0.10265229 -0.020762566 0.13094242 0.049994174 0.080768 -0.06611358 -0.04620574 -0.12510675 -0.028862871 0.1645461 0.056328267 -0.1295133 0.0025133546 0.048820976 0.0658758 0.056036588 0.20606539 0.029303284 -0.16676946 0.032243136 -0.04139611 -0.0069477595 -0.047101326 -0.12509151 -0.03118515 0.028397756 -0.065883085 0.010995285 -0.08504428 -0.08716533 -0.053558283 -0.004779208 -0.097044446 0.12433343 -0.07382263 0.15989648 0.064918995 -0.0720386 0.14196374
33 0.1638663 -0.13900705 -0.3066021 -0.08643109 -0.15167864 -0.0925743 0.0502842 -0.15751451 0.21436185 -0.07450842 0.06732224 0.022055512 -0.069430195 0.0016673798 -0.055801064 -0.03984868 0.10127539 -0.088329285 -0.14962307 0.024927689 0.008341673 -0.052023154 0.0424863 0.24291429 0.033971336 0.044330213 -0.06093361 -0.027450994 0.08423696 0.24518205 0.029265326 -0.21634446 0.18802005 -0.0068322388 0.17907634 0.006822393 -0.06675219 -0.09896871 -0.062445413 0.16079515 0.18570945 0.029513327 0.062278725 -0.079638146 -0.13450687 -0.0807686 0.122270726 0.14304768 -0.03307465 0.21165982 0.2184665 0.07421688 -0.10248478 0.02382643 0.3253983 -0.11649208 0.024081241 0.005818601 -0.021699602 -0.123936884 -0.11893881 0.17757677 0.16484503 -0.058564626 -0.25337747 -0.09306125 0.15437384 -0.16212794 -0.049068782 0.050691098 -0.034999754 -0.043466683 -0.23219737 -0.05693514 -0.106173 0.11162408 0.093438506 -0.048485246 -0.20378546 -0.07729726 -0.1475117 0.005020466 -0.08474935 -0.03033373 -0.09680803 -0.20732363 0.01440341 -0.17064558 0.026231784 0.2099024 0.026480207 0.15133566 0.02763447 -0.004137469 -0.15387082 0.025729211 0.013519588 0.08755589 -0.23284566 -0.12135107 -0.007511523 0.10183383 -0.07546691 -0.14143886 0.0016459787 0.13205035 -0.01297349 -0.093477696 0.10266163 0.065359145 0.08579471 -0.125053 0.09816917 0.2435383 0.13287452 -0.105544075 0.1598101 0.06861255 0.05769829 -0.04070981 0.07125754 0.034338612 -0.035717975 0.20799267 -0.13756472 -0.12579209 -0.06117353 -0.08029671
1 -0.2159715 0.09735941 0.11023445 -0.031465583 0.22396407 -0.0991757 -0.045441195 -0.018675616 -0.13255537 0.10604391 -0.015459044 -0.14002764 0.17407002 -0.07726214 -0.06509314 0.013229097 -0.19763352 -0.092675656 0.036365885 0.003299761 -0.07367983 -0.01343164 -0.027055549 0.07403345 0.013955871 -0.10933061 -0.1395619 0.09340594 -0.06985572 -0.13378727 -0.0066555953 0.21394223 -0.077438384 0.04424722 -0.12489876 -0.027882 -0.023934145 0.061258174 -0.03489625 -0.03714439 -0.0016526721 0.14481018 0.025940869 0.024326658 0.0016801147 -0.008208924 0.07529362 0.012487597 -0.03694681 -0.1371827 -0.09059676 0.004930435 0.044222314 -0.074149564 -0.019242605 0.07244603 -0.051512767 -0.053017076 -0.115786135 0.107352816 -0.008489005 -0.011130648 0.027329078 0.12224173 0.17850861 -0.020493345 0.039343517 0.024602836 0.1726002 -0.063401684 0.09700898 0.14691876 0.17349727 0.16742724 -0.0669899 -0.18365791 -0.04792912 0.11130188 0.033073574 -0.11150826 -0.14793743 -0.115491346 -0.10183022 0.080971256 -0.14007296 -0.10774167 -0.051490005 0.20355983 -0.09085566 0.09743457 -0.07434841 -0.05026312 -0.071149126 0.2054003 0.02773042 -0.08035062 -0.076813616 -0.060787126 0.05362207 -0.07743663 0.047076356 0.06842848 0.10141383 0.11534568 0.14024462 0.075169206 0.056800343 -0.12961161 -0.21537444 -0.05587463 0.113773294 -0.0546551 -0.0914306 -0.06816742 -0.09450327 0.083490945 -0.05478204 -0.011962248 0.05501544 0.077774696 0.039929386 -0.12841144 0.10055907 -0.0852147 0.13354878 0.09328292 -0.013806015 -0.046930753
34 0.06662407 -0.1725088 -0.31713253 -0.1103646 -0.14154364 0.003239076 0.032190856 -0.06886978 0.17839703 0.014339521 0.010626686 0.052537855 0.061423555 -0.09056319 -0.032453787 -0.06265263 0.07259176 -0.123929314 -0.1715328 0.049807586 0.053087957 -7.7049265E-4 0.020770805 0.156519 0.1987287 -0.025438897 -0.05009854 -0.070733 0.03462447 0.22566783 0.0635392 -0.18220995 0.1256922 0.11235507 0.097304754 -0.03940116 -0.096502416 -0.09287988 -0.1358881 0.12094548 0.14663981 -0.0055082818 0.15133162 -0.061976783 -0.11524084 -0.11315154 0.04835931 0.16678342 -0.006591897 0.17268525 0.18915613 0.029462023 0.0034429797 0.038006138 0.35519618 -0.05218945 0.13498424 0.015373417 0.035816368 -0.115378626 -0.1199089 0.13007225 0.07760017 -0.03092102 -0.16684437 0.011195934 0.10474834 -0.12948994 -0.07006556 0.1234673 0.048611745 0.0619138 -0.19011697 -0.06332353 -0.12382451 0.06304493 0.11926183 -0.056440625 -0.106798306 -0.06463964 -0.043330677 0.039600782 -0.016522717 0.046795867 -0.01917771 -0.20549248 -0.035581503 -0.08744242 0.0092359865 0.19604003 0.078187175 0.16644472 0.035336856 0.013232435 -0.13608086 -0.065338574 -0.052467275 0.09899792 -0.11118949 -0.059980974 -0.082427315 0.03437616 0.023688762 -0.039146338 -0.03266401 0.07609365 0.016514406 -0.12321726 0.0806085 0.052794866 0.11509701 -0.085500434 0.02805792 0.1636126 0.122390464 -0.09041396 0.086597264 -0.024803296 -0.0013869675 0.008387713 0.03950753 0.051147077 -0.017399358 0.16668545 -0.08581501 0.0065611154 0.015785724 0.0010457507